1750 10
the 1.5920272 1.9293841 2.2715857 0.0 0.0 1.5825539 0.0 0.0 0.0 0.0 
to 1.8138669 2.0864344 2.5780299 0.0 0.0 1.7169645 0.0 0.0 0.0 0.0 
of 1.8002253 2.0358927 2.5064008 0.0 0.0 1.6941206 0.0 0.010761797 0.0 0.0 
in 1.7574751 2.0326223 2.5311651 0.0 0.0 1.6864246 0.0 0.0 0.0 0.0 
and 1.8623278 2.1103938 2.608025 0.0 0.0 1.7522655 0.0 0.0 0.0 0.0 
he 1.4190822 1.6553485 1.9420316 0.0 0.0 1.3570517 0.0 0.052146465 0.0 0.0 
is 1.7303312 2.0052185 2.4242096 0.0 0.0 1.6341783 0.0 0.0 0.0 0.0 
for 1.8072491 2.0601196 2.5403135 0.0 0.0 1.6974093 0.0 0.0 0.0 0.0 
on 1.9199767 2.1348155 2.7041266 0.0 0.0 1.7604443 0.0 0.0 0.0 0.0 
said 1.6229086 1.8207493 2.2286026 0.0 0.0 1.5163959 0.0 0.0 0.0 0.0 
that 1.603476 1.8641996 2.24142 0.0 0.0 1.52728 0.0 0.028172612 0.0 0.0 
has 1.850205 2.0498984 2.5616927 0.0 0.0 1.6970187 0.0 0.0 0.0 0.0 
says 1.7915878 2.0659492 2.550559 0.0 0.0 1.7053777 0.0 0.0 0.0 0.0 
was 1.5802393 1.7641963 2.145997 0.0 0.0 1.46327 0.0 0.048053563 0.0 0.0 
have 1.771697 1.968341 2.4612346 0.0 0.0 1.6623484 0.0 0.0 0.0 0.0 
it 1.5961361 1.8340793 2.242058 0.0 0.0 1.4920055 0.0 0.0016666949 0.0 0.0 
be 1.5077336 1.7559427 2.1265059 0.0 0.0 1.4243379 0.0 0.033582777 0.0 0.0 
are 1.827194 2.0787458 2.54178 0.0 0.0 1.730182 0.0 0.009974986 0.0 0.0 
with 1.8376882 2.0938537 2.5734148 0.0 0.0 1.7427973 0.0 0.0 0.0 0.0 
will 1.6799462 1.9828876 2.359638 0.0 0.0 1.6502324 0.0 0.0 0.0 0.0 
at 1.8663101 2.1134486 2.6421368 0.0 0.0 1.7795718 0.0 0.0 0.0 0.0 
mr 1.566797 1.8748791 2.2184477 0.0 0.0 1.5480509 0.0 0.0 0.0 0.0 
from 1.8290274 2.041308 2.542317 0.0 0.0 1.6915934 0.0 0.02202633 0.0 0.0 
by 1.7883177 2.0712032 2.548193 0.0 0.0 1.7060959 0.0 0.0 0.0 0.0 
we 1.6537647 1.9773723 2.369152 0.0 0.0 1.5850306 0.0 0.0 0.0 0.0 
been 1.3552928 1.665858 1.9382467 0.0 0.0 1.3843002 0.0 0.023986131 0.0 0.0 
as 1.732521 1.9519014 2.425315 0.0 0.0 1.6036993 0.0 0.0 0.0 0.0 
an 1.7220323 2.0124345 2.451013 0.0 0.0 1.6480722 0.0 0.0 0.0 0.0 
not 1.498096 1.7904592 2.1535711 0.0 0.0 1.4647285 0.0 0.033818007 0.0 0.0 
his 1.6158752 1.8462485 2.3050191 0.0 0.0 1.5366418 0.0 0.0023412704 0.0 0.0 
but 1.6682665 1.9083014 2.332991 0.0 0.0 1.5539398 0.0 0.0 0.0 0.0 
they 1.5234213 1.8640286 2.2082381 0.0 0.0 1.4940437 0.0 0.0 0.0 0.0 
after 1.9020257 2.124641 2.6828423 0.0 0.0 1.7474859 0.0 0.0 0.0 0.0 
were 1.7516994 1.9673586 2.4505298 0.0 0.0 1.6166612 0.0 0.012264401 0.0 0.0 
had 1.6774523 1.9116229 2.3227131 0.0 0.0 1.5961682 0.0 0.0 0.0 0.0 
there 1.4334462 1.7077087 2.0543506 0.0 0.0 1.4078691 0.0 0.047906727 0.0 0.0 
new 1.7560928 1.9460216 2.4485416 0.0 0.0 1.6677969 0.0 0.05750203 0.0 0.0 
this 1.6138239 1.8509965 2.2761605 0.0 0.0 1.5120107 0.0 0.0 0.0 0.0 
australia 1.365459 1.7036335 2.044629 0.0 0.0 1.4142152 0.0 0.03728938 0.0 0.0 
australian 1.5814295 1.818223 2.246107 0.0 0.0 1.4935007 0.0 0.0028196573 0.0 0.0 
who 1.6880727 1.9437613 2.38511 0.0 0.0 1.6210406 0.0 0.0 0.0 0.0 
people 1.4943681 1.7700645 2.1027222 0.0 0.0 1.4533387 0.0 0.04313761 0.0 0.0 
palestinian 1.5564508 1.7860745 2.2067795 0.0 0.0 1.4935921 0.0 0.0024851859 0.0 0.0 
their 1.6645501 1.9019772 2.3504064 0.0 0.0 1.5812973 0.0 0.031983703 0.0 0.0 
two 1.7589293 1.9727566 2.4526532 0.0 0.0 1.6267062 0.0 0.03313589 0.0 0.0 
government 1.4013686 1.6673807 1.9979074 0.0 0.0 1.3543612 0.0 0.029509902 0.0 0.0 
up 1.5571103 1.8481247 2.1788015 0.0 0.0 1.5075343 0.0 0.014168292 0.0 0.0 
south 1.5988293 1.8367532 2.2922063 0.0 0.0 1.5580195 0.0 0.025979847 0.0 0.0 
us 1.4589517 1.694352 2.0855222 0.0 0.0 1.3923379 0.0 0.047357082 0.0 0.0 
which 1.6150618 1.9121487 2.2823324 0.0 0.0 1.566705 0.0 0.009424299 0.0 0.0 
year 1.4633956 1.7549028 2.1404793 0.0 0.0 1.4876246 0.0 0.04961288 0.0 0.0 
one 1.3370113 1.6179581 1.9245727 0.0 0.0 1.3100153 0.0 0.008507311 0.0 0.0 
about 1.5932138 1.7745112 2.2071774 0.0 0.0 1.4731547 0.0 0.050426126 0.0 0.0 
out 1.4578135 1.6855586 2.0524535 0.0 0.0 1.3971231 0.0 0.0578838 0.0 0.0 
if 1.6902621 1.8876674 2.3559365 0.0 0.0 1.5816432 0.0 0.047202826 0.0 0.0 
also 1.5853469 1.7700056 2.2171175 0.0 0.0 1.4896998 0.0 0.010010302 0.0 0.0 
more 1.5033507 1.6956183 2.1143844 0.0 0.0 1.4237442 0.0 0.07011345 0.0 0.0 
when 1.668864 1.8931862 2.3682632 0.0 0.0 1.5651879 0.0 0.0 0.0 0.0 
its 1.6007106 1.8364562 2.256919 0.0 0.0 1.5342183 0.0 0.056419283 0.0 0.0 
would 1.5088074 1.7662078 2.1342049 0.0 0.0 1.4666308 0.0 0.0075681806 0.0 0.0 
into 1.6776512 1.9264879 2.3660724 0.0 0.0 1.5649428 0.0 0.015377879 0.0 0.0 
first 1.5696039 1.816022 2.2238 0.0 0.0 1.4812465 0.0 0.017367661 0.0 0.0 
last 1.5641122 1.7753253 2.1672556 0.0 0.0 1.4828823 0.0 0.041936576 0.0 0.0 
against 1.507071 1.7511299 2.1117997 0.0 0.0 1.4585209 0.0 0.06251559 0.0 0.0 
israeli 1.5383732 1.726723 2.1696053 0.0 0.0 1.4102638 0.0 0.018773973 0.0 0.0 
minister 1.7311838 1.8660597 2.4056218 0.0 0.0 1.5257238 0.0 0.010031551 0.0 0.0 
arafat 1.3814437 1.5628219 1.9241548 0.0 0.0 1.2861284 0.0 0.07868308 0.0 0.0 
all 1.2434983 1.5523267 1.8173449 0.0 0.0 1.2484405 0.0 0.028869748 0.0 0.0 
over 1.5167012 1.8123895 2.1466987 0.0 0.0 1.4701148 0.0 0.0 0.0 0.0 
afghanistan 1.2611835 1.5217524 1.7847574 0.0 0.0 1.2071152 0.0 0.049073607 0.0 0.0 
three 1.4342668 1.6509577 2.040812 0.0 0.0 1.3298542 0.0 0.036192566 0.0 0.0 
united 1.1492109 1.4204859 1.66475 0.0 0.0 1.1186414 0.0 0.060259894 0.0 0.0 
no 1.2705574 1.529944 1.834908 0.0 0.0 1.2355688 0.0 0.05937597 0.0 0.0 
world 1.5711529 1.8312268 2.2657382 0.0 0.0 1.5010383 0.0 0.0 0.0 0.0 
or 1.350589 1.6110675 1.9250524 0.0 0.0 1.3324972 0.0 0.073120445 0.0 0.0 
police 1.3559289 1.5669259 1.8941743 0.0 0.0 1.3074248 0.0 0.087111756 0.0 0.0 
than 1.4263241 1.6176476 2.054116 0.0 0.0 1.3427395 0.0 0.052739114 0.0 0.0 
before 1.6245999 1.8625125 2.290086 0.0 0.0 1.5478256 0.0 0.0 0.0 0.0 
attacks 1.101217 1.4219884 1.6136478 0.0 0.0 1.1672902 0.0 0.06531121 0.0 0.0 
fire 1.3420043 1.5723714 1.9126844 0.0 0.0 1.3000537 0.0 0.05095032 0.0 0.0 
day 1.1178353 1.3431715 1.6244336 0.0 0.0 1.1052248 0.0 0.068157524 0.0 0.0 
security 1.2843447 1.5146377 1.8549042 0.0 0.0 1.2626724 0.0 0.057165414 0.0 0.0 
some 1.2871089 1.4966086 1.8240821 0.0 0.0 1.2255683 0.0 0.06518991 0.0 0.0 
states 0.98230106 1.4319395 1.5350864 0.0 0.0 1.15836 0.0 0.08060604 0.0 0.0 
you 1.4870338 1.7736608 2.111406 0.0 0.0 1.4341278 0.0 0.0 0.0 0.0 
them 1.242192 1.4374964 1.7499807 0.0 0.0 1.181997 0.0 0.05795154 0.0 0.0 
could 1.2529256 1.5159425 1.7961447 0.0 0.0 1.2369031 0.0 0.050194114 0.0 0.0 
today 1.5607798 1.8558195 2.2172906 0.0 0.0 1.501896 0.0 0.0038258433 0.0 0.0 
say 1.1805503 1.4387864 1.7018201 0.0 0.0 1.1729136 0.0 0.061865807 0.0 0.0 
told 1.4441073 1.690838 2.0492265 0.0 0.0 1.37193 0.0 0.014020503 0.0 0.0 
now 1.20555 1.5433989 1.7888417 0.0 0.0 1.2453803 0.0 0.050618112 0.0 0.0 
time 0.98209065 1.2070409 1.3780061 0.0 0.0 0.98434573 0.0 0.11830403 0.0 0.0 
any 1.2779474 1.5007685 1.7905486 0.0 0.0 1.2228225 0.0 0.0785155 0.0 0.0 
very 1.0627046 1.3304561 1.5280002 0.0 0.0 1.0832927 0.0 0.10890867 0.0 0.0 
laden 1.1966453 1.4392723 1.6471707 0.0 0.0 1.1121324 0.0 0.04681146 0.0 0.0 
just 1.1106224 1.4100267 1.5895904 0.0 0.0 1.1399738 0.0 0.095577896 0.0 0.0 
bin 1.1582026 1.4062359 1.6721706 0.0 0.0 1.1914465 0.0 0.06340313 0.0 0.0 
can 1.2533293 1.5348831 1.7846456 0.0 0.0 1.2670032 0.0 0.08749136 0.0 0.0 
what 1.0324483 1.3409361 1.5094004 0.0 0.0 1.0731052 0.0 0.1311751 0.0 0.0 
sydney 1.2545803 1.4721781 1.7607882 0.0 0.0 1.2136172 0.0 0.081537366 0.0 0.0 
still 1.1587803 1.4029224 1.6838229 0.0 0.0 1.1423904 0.0 0.07078415 0.0 0.0 
president 1.1745844 1.4293468 1.7009395 0.0 0.0 1.1548883 0.0 0.0684495 0.0 0.0 
company 1.1764114 1.3809148 1.6647936 0.0 0.0 1.1513059 0.0 0.096022606 0.0 0.0 
four 1.2992306 1.5241808 1.855741 0.0 0.0 1.281677 0.0 0.08891198 0.0 0.0 
man 0.6943875 0.9256637 1.0115321 0.0 0.0 0.7322391 0.0 0.18870503 0.0 0.0 
killed 0.83549756 1.1156493 1.2239339 0.0 0.0 0.8972454 0.0 0.15828724 0.0 0.0 
taliban 1.1678567 1.4685944 1.6875515 0.0 0.0 1.1949017 0.0 0.096986085 0.0 0.0 
al 1.0047798 1.3330297 1.509032 0.0 0.0 1.1000317 0.0 0.10759793 0.0 0.0 
our 1.0880568 1.3576815 1.5694073 0.0 0.0 1.1221864 0.0 0.05603294 0.0 0.0 
forces 1.0042067 1.2234298 1.4543829 0.0 0.0 1.0032104 0.0 0.12437615 0.0 0.0 
around 1.1506832 1.3797042 1.6293316 0.0 0.0 1.1416024 0.0 0.11035237 0.0 0.0 
days 1.0569043 1.2991196 1.5269 0.0 0.0 1.0637375 0.0 0.07999292 0.0 0.0 
being 1.0158064 1.2725192 1.5033339 0.0 0.0 1.0399607 0.0 0.11282702 0.0 0.0 
west 0.93829817 1.1129113 1.3424467 0.0 0.0 0.87435406 0.0 0.09958477 0.0 0.0 
old 0.9610775 1.1941361 1.4072756 0.0 0.0 0.97973865 0.0 0.11869408 0.0 0.0 
other 1.0704458 1.3258072 1.5509462 0.0 0.0 1.061899 0.0 0.079049915 0.0 0.0 
where 1.1639743 1.3821826 1.6838912 0.0 0.0 1.1338195 0.0 0.08941892 0.0 0.0 
so 0.98127455 1.2825675 1.430129 0.0 0.0 1.0299778 0.0 0.07903516 0.0 0.0 
officials 1.0658951 1.2982 1.5182359 0.0 0.0 1.0368941 0.0 0.095841974 0.0 0.0 
test 1.0820286 1.308116 1.562607 0.0 0.0 1.0908355 0.0 0.0789316 0.0 0.0 
israel 0.90245205 1.1276896 1.3347144 0.0 0.0 0.9297206 0.0 0.18201755 0.0 0.0 
qaeda 0.9427325 1.2251449 1.4060777 0.0 0.0 1.011995 0.0 0.074995175 0.0 0.0 
per 0.9162602 1.1240518 1.3422256 0.0 0.0 0.91453046 0.0 0.08712196 0.0 0.0 
think 1.0630174 1.380902 1.556943 0.0 0.0 1.1077462 0.0 0.07440585 0.0 0.0 
federal 0.81496125 1.1058447 1.2349039 0.0 0.0 0.89663357 0.0 0.1647704 0.0 0.0 
next 0.96297306 1.1781067 1.3987015 0.0 0.0 0.9470566 0.0 0.07429242 0.0 0.0 
general 1.2832522 1.5273179 1.7843986 0.0 0.0 1.2358953 0.0 0.09728813 0.0 0.0 
force 0.9871395 1.216038 1.4181025 0.0 0.0 0.9850692 0.0 0.092659906 0.0 0.0 
she 0.8215174 1.1032829 1.2073684 0.0 0.0 0.864695 0.0 0.111817405 0.0 0.0 
cent 1.0043573 1.2792544 1.5034409 0.0 0.0 1.0514258 0.0 0.1296945 0.0 0.0 
yesterday 1.0798321 1.3088595 1.5679951 0.0 0.0 1.0781938 0.0 0.11060196 0.0 0.0 
leader 0.8618466 1.1081232 1.275111 0.0 0.0 0.8974641 0.0 0.12813243 0.0 0.0 
workers 1.11959 1.3549498 1.6013639 0.0 0.0 1.1071346 0.0 0.12376855 0.0 0.0 
hamas 1.0936127 1.3205553 1.5642267 0.0 0.0 1.0607951 0.0 0.10060644 0.0 0.0 
take 0.80802506 1.0511444 1.205836 0.0 0.0 0.85157794 0.0 0.16976549 0.0 0.0 
under 1.0717471 1.298558 1.5302303 0.0 0.0 1.0395412 0.0 0.08919135 0.0 0.0 
him 0.7953623 1.097124 1.2039592 0.0 0.0 0.8836854 0.0 0.122670636 0.0 0.0 
state 1.0129678 1.3066871 1.4664636 0.0 0.0 1.0427171 0.0 0.09146245 0.0 0.0 
meeting 0.87155265 1.1026219 1.2742784 0.0 0.0 0.91016906 0.0 0.14915992 0.0 0.0 
back 0.8308477 1.086962 1.2085178 0.0 0.0 0.85477465 0.0 0.13814408 0.0 0.0 
bank 0.9251568 1.1959091 1.3541926 0.0 0.0 0.9611569 0.0 0.11707695 0.0 0.0 
years 0.830309 1.035529 1.1679554 0.0 0.0 0.84655756 0.0 0.16271386 0.0 0.0 
suicide 1.0064063 1.2329673 1.4209478 0.0 0.0 1.0113347 0.0 0.12665379 0.0 0.0 
those 0.8477368 1.1519839 1.2530406 0.0 0.0 0.9148121 0.0 0.13190292 0.0 0.0 
made 0.96468705 1.1768054 1.3785176 0.0 0.0 0.9946149 0.0 0.14154194 0.0 0.0 
action 0.89067334 1.1307774 1.3110088 0.0 0.0 0.90595645 0.0 0.105626225 0.0 0.0 
down 0.97442406 1.2776898 1.4410173 0.0 0.0 1.0070194 0.0 0.11185667 0.0 0.0 
morning 0.8441878 1.108761 1.1995683 0.0 0.0 0.8889579 0.0 0.16850059 0.0 0.0 
commission 0.9796578 1.2578926 1.4130081 0.0 0.0 1.0261035 0.0 0.12524799 0.0 0.0 
pakistan 0.9747521 1.232772 1.431391 0.0 0.0 1.0027698 0.0 0.12265617 0.0 0.0 
re 0.9175468 1.1808774 1.3337086 0.0 0.0 0.951455 0.0 0.10616261 0.0 0.0 
international 1.1163175 1.3451464 1.6091771 0.0 0.0 1.1027529 0.0 0.09403232 0.0 0.0 
attack 0.9726284 1.2173895 1.3976033 0.0 0.0 0.97965413 0.0 0.12354769 0.0 0.0 
afghan 0.96744746 1.2055155 1.4136449 0.0 0.0 0.9951001 0.0 0.15137817 0.0 0.0 
group 1.0637915 1.2977988 1.5086639 0.0 0.0 1.030621 0.0 0.096774325 0.0 0.0 
city 0.91576046 1.1903766 1.3457196 0.0 0.0 0.9398202 0.0 0.10367058 0.0 0.0 
centre 0.9563194 1.1656655 1.3713808 0.0 0.0 0.9181219 0.0 0.1222654 0.0 0.0 
military 1.0597746 1.2978984 1.5374115 0.0 0.0 1.0677422 0.0 0.09791879 0.0 0.0 
well 0.6822656 0.96365035 1.0551615 0.0 0.0 0.77250105 0.0 0.12978394 0.0 0.0 
number 0.68468904 0.9416754 1.0554343 0.0 0.0 0.7523693 0.0 0.19646528 0.0 0.0 
members 0.9557592 1.2082012 1.3951648 0.0 0.0 0.97773725 0.0 0.12461099 0.0 0.0 
through 1.0050743 1.2556998 1.4355562 0.0 0.0 1.0162933 0.0 0.09834264 0.0 0.0 
while 1.0402741 1.2274972 1.5144328 0.0 0.0 1.000129 0.0 0.121913046 0.0 0.0 
qantas 0.8754776 1.1204324 1.2727786 0.0 0.0 0.9126542 0.0 0.17369425 0.0 0.0 
area 0.7345625 0.9623933 1.057379 0.0 0.0 0.7558432 0.0 0.1528753 0.0 0.0 
called 0.78282565 1.0694555 1.1897055 0.0 0.0 0.8683731 0.0 0.11900276 0.0 0.0 
five 0.97937924 1.2543615 1.4451022 0.0 0.0 1.0170494 0.0 0.11708763 0.0 0.0 
local 1.0065794 1.2511481 1.4685482 0.0 0.0 1.0176234 0.0 0.0797638 0.0 0.0 
national 0.9223079 1.1886795 1.3397425 0.0 0.0 0.96518856 0.0 0.122335374 0.0 0.0 
union 1.0034802 1.2884432 1.4773188 0.0 0.0 1.0369601 0.0 0.12423241 0.0 0.0 
gaza 0.9042197 1.1378802 1.3277676 0.0 0.0 0.91352904 0.0 0.13264838 0.0 0.0 
week 0.7783161 1.012761 1.128515 0.0 0.0 0.8309605 0.0 0.19980201 0.0 0.0 
since 0.9405615 1.180914 1.3458476 0.0 0.0 0.9676791 0.0 0.13562277 0.0 0.0 
september 0.5068046 0.7927079 0.7903774 0.0 0.0 0.62266403 0.0 0.20267451 0.0 0.0 
including 1.0106945 1.2674524 1.4518965 0.0 0.0 1.0431441 0.0 0.10843307 0.0 0.0 
wales 0.63026315 0.94796693 1.0097829 0.0 0.0 0.77001905 0.0 0.17052212 0.0 0.0 
hours 0.8666572 1.0978891 1.2596668 0.0 0.0 0.8903625 0.0 0.15319735 0.0 0.0 
east 0.8546502 1.1548804 1.2754446 0.0 0.0 0.9251726 0.0 0.13411865 0.0 0.0 
another 0.74255866 0.96985435 1.0760843 0.0 0.0 0.77615225 0.0 0.15730727 0.0 0.0 
should 0.73501605 1.0200156 1.0935017 0.0 0.0 0.7977807 0.0 0.11024755 0.0 0.0 
report 0.7653703 1.0186497 1.1331539 0.0 0.0 0.8042068 0.0 0.16334985 0.0 0.0 
night 0.93641263 1.1888392 1.3498926 0.0 0.0 0.96476454 0.0 0.11069524 0.0 0.0 
north 0.8373334 1.0502784 1.22574 0.0 0.0 0.82262033 0.0 0.1381419 0.0 0.0 
off 0.78944546 1.0764852 1.1970943 0.0 0.0 0.8628685 0.0 0.118479 0.0 0.0 
these 0.70233625 1.0301754 1.0610653 0.0 0.0 0.8128803 0.0 0.14416733 0.0 0.0 
six 0.83512324 1.1305349 1.278815 0.0 0.0 0.9034196 0.0 0.10915652 0.0 0.0 
war 0.54130024 0.8097309 0.8326446 0.0 0.0 0.64457065 0.0 0.19576526 0.0 0.0 
second 1.0293722 1.2616097 1.4671422 0.0 0.0 1.0185827 0.0 0.12165655 0.0 0.0 
between 0.9061255 1.1668637 1.3141955 0.0 0.0 0.9397852 0.0 0.114386365 0.0 0.0 
staff 0.70724064 0.91692317 1.0207098 0.0 0.0 0.7210205 0.0 0.16411307 0.0 0.0 
get 0.8012548 1.0086792 1.1752387 0.0 0.0 0.8199156 0.0 0.12533084 0.0 0.0 
earlier 0.86077946 1.1299089 1.2408061 0.0 0.0 0.91936207 0.0 0.18449149 0.0 0.0 
go 0.738645 0.9951602 1.0850186 0.0 0.0 0.78830945 0.0 0.18241893 0.0 0.0 
months 0.8100845 1.0840096 1.2228037 0.0 0.0 0.86726624 0.0 0.15294929 0.0 0.0 
further 0.7219406 0.99250746 1.1038393 0.0 0.0 0.789657 0.0 0.18541831 0.0 0.0 
islamic 1.0595613 1.2360522 1.5059241 0.0 0.0 1.0049115 0.0 0.13181852 0.0 0.0 
defence 0.6731308 0.8891506 1.0231975 0.0 0.0 0.71753424 0.0 0.16152298 0.0 0.0 
end 0.5545546 0.8222475 0.85750926 0.0 0.0 0.6455874 0.0 0.16498515 0.0 0.0 
do 0.58019394 0.8665968 0.86334395 0.0 0.0 0.6744583 0.0 0.19645172 0.0 0.0 
because 0.8121814 1.0192741 1.1717958 0.0 0.0 0.8172881 0.0 0.15233164 0.0 0.0 
power 0.82540745 1.0906827 1.2202476 0.0 0.0 0.8613924 0.0 0.14084773 0.0 0.0 
team 0.7152713 0.9422505 1.0510719 0.0 0.0 0.74468666 0.0 0.13831867 0.0 0.0 
authority 0.65694267 0.9034699 0.98099816 0.0 0.0 0.70723563 0.0 0.18013495 0.0 0.0 
near 0.92718476 1.158677 1.3526391 0.0 0.0 0.94597405 0.0 0.10619427 0.0 0.0 
foreign 0.82983977 1.0873792 1.2119844 0.0 0.0 0.90253067 0.0 0.1568214 0.0 0.0 
going 0.55861944 0.82584274 0.8647064 0.0 0.0 0.66318804 0.0 0.19148882 0.0 0.0 
areas 0.84680945 1.0757296 1.2015032 0.0 0.0 0.86892754 0.0 0.13426888 0.0 0.0 
sharon 0.72935045 0.979452 1.0926039 0.0 0.0 0.77628213 0.0 0.15047552 0.0 0.0 
work 0.54685485 0.79994 0.8263657 0.0 0.0 0.6323653 0.0 0.16674216 0.0 0.0 
during 0.86098737 1.1174223 1.2383022 0.0 0.0 0.8820701 0.0 0.11083935 0.0 0.0 
india 0.6417051 0.9149163 0.95191896 0.0 0.0 0.71414655 0.0 0.13392898 0.0 0.0 
eight 0.8140976 1.0610056 1.1720765 0.0 0.0 0.8571709 0.0 0.17791848 0.0 0.0 
only 0.73461455 0.9537561 1.0430567 0.0 0.0 0.7526951 0.0 0.15084651 0.0 0.0 
died 0.73580563 0.98701644 1.1013242 0.0 0.0 0.7961517 0.0 0.15535508 0.0 0.0 
many 0.6404752 0.9120425 0.9730984 0.0 0.0 0.7059932 0.0 0.17661306 0.0 0.0 
way 0.5267609 0.77625346 0.8249099 0.0 0.0 0.6080646 0.0 0.1548213 0.0 0.0 
month 0.8274767 1.0835161 1.1730491 0.0 0.0 0.8437036 0.0 0.106036425 0.0 0.0 
know 0.6541062 0.91105545 0.98090124 0.0 0.0 0.69654423 0.0 0.12280017 0.0 0.0 
former 0.72647077 1.0059593 1.0846512 0.0 0.0 0.77435476 0.0 0.13290846 0.0 0.0 
air 0.75801796 1.015995 1.1308888 0.0 0.0 0.82240313 0.0 0.13742505 0.0 0.0 
claims 0.65578514 0.8790225 0.9534663 0.0 0.0 0.71187526 0.0 0.16245858 0.0 0.0 
match 0.63692 0.889271 0.96749246 0.0 0.0 0.70561427 0.0 0.18189651 0.0 0.0 
melbourne 0.74751836 1.0301242 1.1320908 0.0 0.0 0.8296911 0.0 0.14808607 0.0 0.0 
good 0.5270162 0.80777955 0.82549036 0.0 0.0 0.603011 0.0 0.16463861 0.0 0.0 
left 0.72673565 0.9873483 1.0982875 0.0 0.0 0.7782667 0.0 0.10045764 0.0 0.0 
metres 0.8330663 1.04396 1.2226615 0.0 0.0 0.8438751 0.0 0.17463431 0.0 0.0 
ve 0.5661356 0.88229704 0.8629049 0.0 0.0 0.7060111 0.0 0.17049836 0.0 0.0 
northern 0.7038207 0.9738234 1.0822214 0.0 0.0 0.780184 0.0 0.15446459 0.0 0.0 
spokesman 0.594071 0.84674346 0.8654517 0.0 0.0 0.6635135 0.0 0.17008275 0.0 0.0 
make 0.7110333 0.9910412 1.1017832 0.0 0.0 0.7950582 0.0 0.14396204 0.0 0.0 
prime 0.58303696 0.86027086 0.8886802 0.0 0.0 0.7227119 0.0 0.16522989 0.0 0.0 
most 0.7565642 1.025033 1.1519119 0.0 0.0 0.8199147 0.0 0.15074395 0.0 0.0 
like 0.56410533 0.84405947 0.8483834 0.0 0.0 0.6674788 0.0 0.17685205 0.0 0.0 
support 0.4998039 0.74619985 0.75340664 0.0 0.0 0.5911892 0.0 0.17482002 0.0 0.0 
osama 0.7800693 0.9940212 1.1244822 0.0 0.0 0.7745049 0.0 0.14782922 0.0 0.0 
peace 0.67003614 0.95516205 1.0230298 0.0 0.0 0.7748063 0.0 0.16132452 0.0 0.0 
authorities 0.65460116 0.9103259 0.96854997 0.0 0.0 0.7218481 0.0 0.19400114 0.0 0.0 
set 0.7094256 0.9767958 1.0856255 0.0 0.0 0.77060777 0.0 0.12472279 0.0 0.0 
ago 0.6809004 0.98667336 1.0689622 0.0 0.0 0.77337795 0.0 0.15525217 0.0 0.0 
am 0.7793401 1.0291233 1.1439521 0.0 0.0 0.816911 0.0 0.17009823 0.0 0.0 
given 0.5926384 0.8533642 0.89137447 0.0 0.0 0.6729169 0.0 0.15288055 0.0 0.0 
expected 0.49539703 0.8173462 0.8047837 0.0 0.0 0.6318604 0.0 0.18700768 0.0 0.0 
saying 0.6299447 0.87180483 0.92237234 0.0 0.0 0.6731153 0.0 0.1404404 0.0 0.0 
come 0.5050294 0.78410196 0.8026154 0.0 0.0 0.61948556 0.0 0.20795232 0.0 0.0 
place 0.57318556 0.82619774 0.8590028 0.0 0.0 0.64625126 0.0 0.18389088 0.0 0.0 
militants 0.5800091 0.84954214 0.88801026 0.0 0.0 0.6715312 0.0 0.16839968 0.0 0.0 
put 0.59605736 0.86705554 0.88415444 0.0 0.0 0.67502105 0.0 0.13720848 0.0 0.0 
tora 0.701333 0.99596095 1.046926 0.0 0.0 0.77961886 0.0 0.17596604 0.0 0.0 
bora 0.7288323 0.95453954 1.0818366 0.0 0.0 0.7651516 0.0 0.14211239 0.0 0.0 
looking 0.5462492 0.8158108 0.8832532 0.0 0.0 0.6478706 0.0 0.20045578 0.0 0.0 
several 0.7078857 0.9412894 1.070133 0.0 0.0 0.77477723 0.0 0.16738692 0.0 0.0 
fighters 0.6226352 0.85836947 0.92084897 0.0 0.0 0.6622698 0.0 0.17805725 0.0 0.0 
children 0.65062815 0.91759026 1.0074059 0.0 0.0 0.70415205 0.0 0.13077617 0.0 0.0 
troops 0.5190402 0.7902744 0.8061123 0.0 0.0 0.59450454 0.0 0.18720344 0.0 0.0 
meanwhile 0.60188216 0.8601563 0.9402516 0.0 0.0 0.6869224 0.0 0.17862198 0.0 0.0 
indian 0.5113916 0.76569843 0.78524315 0.0 0.0 0.6049163 0.0 0.19245562 0.0 0.0 
unions 0.6050572 0.8580961 0.92424226 0.0 0.0 0.6856991 0.0 0.15126118 0.0 0.0 
groups 0.6000397 0.88920116 0.93002844 0.0 0.0 0.6922062 0.0 0.11377917 0.0 0.0 
africa 0.49005002 0.7128829 0.7657863 0.0 0.0 0.5665913 0.0 0.21140958 0.0 0.0 
child 0.71459454 0.97601724 1.0553532 0.0 0.0 0.7613229 0.0 0.164978 0.0 0.0 
christmas 0.572614 0.795207 0.8526056 0.0 0.0 0.6247009 0.0 0.18146399 0.0 0.0 
arrested 0.3893569 0.6772213 0.6373819 0.0 0.0 0.5162969 0.0 0.21160202 0.0 0.0 
river 0.45823795 0.7322769 0.7350335 0.0 0.0 0.57383776 0.0 0.18090293 0.0 0.0 
royal 0.6108218 0.8856976 0.9543251 0.0 0.0 0.6789315 0.0 0.12991974 0.0 0.0 
injured 0.49323517 0.70565355 0.74956274 0.0 0.0 0.51912403 0.0 0.19118461 0.0 0.0 
found 0.48038024 0.7539556 0.75148284 0.0 0.0 0.59042925 0.0 0.19595319 0.0 0.0 
then 0.68083024 0.9562007 1.0197276 0.0 0.0 0.7775004 0.0 0.17542791 0.0 0.0 
talks 0.6905989 0.97391593 1.0518464 0.0 0.0 0.8022885 0.0 0.14527205 0.0 0.0 
yasser 0.4992364 0.7911171 0.74442565 0.0 0.0 0.60910225 0.0 0.19347954 0.0 0.0 
hospital 0.63161296 0.8772125 0.9220854 0.0 0.0 0.69235635 0.0 0.16784003 0.0 0.0 
terrorist 0.45584178 0.697237 0.71150863 0.0 0.0 0.5407951 0.0 0.18392153 0.0 0.0 
interim 0.44974738 0.71317315 0.6991873 0.0 0.0 0.55738175 0.0 0.19196242 0.0 0.0 
official 0.63821477 0.9259286 1.0017864 0.0 0.0 0.7428718 0.0 0.14080021 0.0 0.0 
part 0.5072945 0.7183951 0.75043 0.0 0.0 0.5617796 0.0 0.239914 0.0 0.0 
whether 0.7030701 0.97331023 1.0539491 0.0 0.0 0.74333733 0.0 0.1521434 0.0 0.0 
reports 0.5512578 0.7641134 0.76357675 0.0 0.0 0.58017236 0.0 0.19249228 0.0 0.0 
economy 0.49317724 0.76211894 0.7801471 0.0 0.0 0.5776364 0.0 0.18983941 0.0 0.0 
early 0.38768792 0.6450516 0.5920067 0.0 0.0 0.48716658 0.0 0.23131958 0.0 0.0 
don 0.5646604 0.822227 0.8408518 0.0 0.0 0.6600662 0.0 0.18444893 0.0 0.0 
third 0.7051795 0.98388064 1.0555747 0.0 0.0 0.7674645 0.0 0.15272635 0.0 0.0 
leaders 0.5826919 0.8060088 0.88623047 0.0 0.0 0.6258864 0.0 0.17443638 0.0 0.0 
statement 0.63069993 0.8869692 0.97263575 0.0 0.0 0.69987065 0.0 0.13798048 0.0 0.0 
industrial 0.6856517 0.959007 1.0383738 0.0 0.0 0.7587607 0.0 0.15679564 0.0 0.0 
how 0.6172412 0.8849189 0.9328444 0.0 0.0 0.72445536 0.0 0.15733853 0.0 0.0 
terrorism 0.51169485 0.7452688 0.7817639 0.0 0.0 0.60772747 0.0 0.18595923 0.0 0.0 
mountains 0.5450832 0.83054054 0.86333966 0.0 0.0 0.6534076 0.0 0.19541067 0.0 0.0 
start 0.4762171 0.7615098 0.7427219 0.0 0.0 0.5766365 0.0 0.17654304 0.0 0.0 
senior 0.59554297 0.8745316 0.9111068 0.0 0.0 0.68851054 0.0 0.18065265 0.0 0.0 
family 0.46460068 0.74440277 0.7170465 0.0 0.0 0.59425443 0.0 0.18959016 0.0 0.0 
both 0.6262009 0.89906013 0.9529817 0.0 0.0 0.7021477 0.0 0.15590233 0.0 0.0 
public 0.57591087 0.8194032 0.8589792 0.0 0.0 0.6266477 0.0 0.15053996 0.0 0.0 
million 0.41374522 0.64480066 0.65879095 0.0 0.0 0.48816597 0.0 0.20894462 0.0 0.0 
weather 0.5865995 0.85666466 0.90794444 0.0 0.0 0.69839483 0.0 0.16435762 0.0 0.0 
john 0.53814024 0.82201564 0.8103124 0.0 0.0 0.64671564 0.0 0.20252284 0.0 0.0 
believe 0.3371629 0.6227548 0.58980346 0.0 0.0 0.453082 0.0 0.19772153 0.0 0.0 
radio 0.5989718 0.8287722 0.88583815 0.0 0.0 0.6627959 0.0 0.19088796 0.0 0.0 
pay 0.5417682 0.78788126 0.83469415 0.0 0.0 0.6441699 0.0 0.1830834 0.0 0.0 
trying 0.48157388 0.7078705 0.72811365 0.0 0.0 0.5292291 0.0 0.17386115 0.0 0.0 
army 0.24207795 0.5422473 0.45135036 0.0 0.0 0.37586215 0.0 0.20766762 0.0 0.0 
court 0.6046217 0.87543213 0.9016572 0.0 0.0 0.6708852 0.0 0.18055378 0.0 0.0 
hit 0.58117884 0.8456094 0.87167287 0.0 0.0 0.6470723 0.0 0.18086803 0.0 0.0 
pressure 0.45238054 0.70199585 0.7045928 0.0 0.0 0.5335628 0.0 0.16541088 0.0 0.0 
however 0.44801486 0.7355348 0.6899266 0.0 0.0 0.55293685 0.0 0.21141681 0.0 0.0 
lead 0.47526556 0.71200454 0.7361795 0.0 0.0 0.56458557 0.0 0.22449309 0.0 0.0 
chief 0.7590255 1.0040027 1.141525 0.0 0.0 0.81259876 0.0 0.13006611 0.0 0.0 
asked 0.50891924 0.783908 0.8205534 0.0 0.0 0.60766405 0.0 0.18785354 0.0 0.0 
control 0.39531136 0.6771505 0.611434 0.0 0.0 0.521435 0.0 0.194962 0.0 0.0 
long 0.66238916 0.9467999 0.9907377 0.0 0.0 0.7409779 0.0 0.13769919 0.0 0.0 
best 0.35110474 0.53483737 0.53162813 0.0 0.0 0.43081614 0.0 0.22911227 0.0 0.0 
following 0.66882306 0.8957125 1.0089377 0.0 0.0 0.7163302 0.0 0.1711946 0.0 0.0 
agreement 0.55335677 0.869982 0.8807616 0.0 0.0 0.68130046 0.0 0.15225643 0.0 0.0 
help 0.5951392 0.8475952 0.8918016 0.0 0.0 0.65085506 0.0 0.16998632 0.0 0.0 
adelaide 0.54844105 0.7837676 0.8025298 0.0 0.0 0.6077356 0.0 0.16627195 0.0 0.0 
dr 0.645074 0.91784644 1.0018913 0.0 0.0 0.71973646 0.0 0.15302302 0.0 0.0 
few 0.3728177 0.63544977 0.59246373 0.0 0.0 0.48676878 0.0 0.2171522 0.0 0.0 
labor 0.5122005 0.7930248 0.7967963 0.0 0.0 0.61592406 0.0 0.16730356 0.0 0.0 
australians 0.42218143 0.70864904 0.69972324 0.0 0.0 0.56883526 0.0 0.21341181 0.0 0.0 
firefighters 0.39583987 0.6854018 0.6373116 0.0 0.0 0.5022899 0.0 0.16522467 0.0 0.0 
high 0.60779685 0.87871516 0.9707962 0.0 0.0 0.68252206 0.0 0.13233785 0.0 0.0 
house 0.47459006 0.77810025 0.7741618 0.0 0.0 0.58406276 0.0 0.18001042 0.0 0.0 
community 0.46989828 0.7669705 0.74668896 0.0 0.0 0.5875069 0.0 0.19011474 0.0 0.0 
taken 0.41481113 0.7242849 0.66992867 0.0 0.0 0.5787384 0.0 0.20282167 0.0 0.0 
want 0.58121735 0.7682917 0.8358325 0.0 0.0 0.6197463 0.0 0.2367068 0.0 0.0 
close 0.4829998 0.74737763 0.7493838 0.0 0.0 0.5873651 0.0 0.19267923 0.0 0.0 
confirmed 0.431696 0.65866756 0.64227545 0.0 0.0 0.50064886 0.0 0.18304992 0.0 0.0 
need 0.38745475 0.6910386 0.64355063 0.0 0.0 0.5301985 0.0 0.21082471 0.0 0.0 
queensland 0.6326489 0.8621167 0.9409249 0.0 0.0 0.6837393 0.0 0.18258527 0.0 0.0 
service 0.6102996 0.8461484 0.89152 0.0 0.0 0.6800937 0.0 0.18078466 0.0 0.0 
arrest 0.46218598 0.7232541 0.7475616 0.0 0.0 0.55744755 0.0 0.21577856 0.0 0.0 
services 0.6484943 0.87333214 0.96131253 0.0 0.0 0.70686114 0.0 0.19622964 0.0 0.0 
better 0.4644816 0.7477031 0.74776053 0.0 0.0 0.5806218 0.0 0.20711994 0.0 0.0 
play 0.5073389 0.79815257 0.78748524 0.0 0.0 0.62068045 0.0 0.21505806 0.0 0.0 
overnight 0.60197705 0.8674251 0.9239229 0.0 0.0 0.6973426 0.0 0.15683311 0.0 0.0 
process 0.34981078 0.6310463 0.5723611 0.0 0.0 0.48039407 0.0 0.18666679 0.0 0.0 
does 0.39795995 0.67431307 0.6410016 0.0 0.0 0.5110713 0.0 0.2189877 0.0 0.0 
came 0.4672311 0.7559513 0.74596 0.0 0.0 0.6032561 0.0 0.20541272 0.0 0.0 
must 0.5147556 0.74839306 0.8068788 0.0 0.0 0.6011239 0.0 0.19344527 0.0 0.0 
believed 0.25083762 0.522676 0.4381542 0.0 0.0 0.38146207 0.0 0.2103692 0.0 0.0 
information 0.5167893 0.8108517 0.8267131 0.0 0.0 0.6296143 0.0 0.18381737 0.0 0.0 
opposition 0.3261341 0.59311914 0.54566026 0.0 0.0 0.4570065 0.0 0.16300318 0.0 0.0 
detainees 0.5293758 0.7868867 0.82090247 0.0 0.0 0.627113 0.0 0.18427175 0.0 0.0 
secretary 0.63879347 0.9139861 0.97617817 0.0 0.0 0.72552055 0.0 0.16920422 0.0 0.0 
williams 0.39301616 0.6408006 0.6244694 0.0 0.0 0.4876095 0.0 0.19820908 0.0 0.0 
won 0.58481365 0.83961093 0.8713244 0.0 0.0 0.6515762 0.0 0.15131319 0.0 0.0 
took 0.41918665 0.6540599 0.69173026 0.0 0.0 0.5063807 0.0 0.20857751 0.0 0.0 
held 0.4513741 0.67907906 0.69356585 0.0 0.0 0.5311176 0.0 0.19228113 0.0 0.0 
released 0.3885786 0.6475153 0.58607614 0.0 0.0 0.48707616 0.0 0.21167715 0.0 0.0 
win 0.5462026 0.76552653 0.82418394 0.0 0.0 0.6054707 0.0 0.19676194 0.0 0.0 
accused 0.35125923 0.59980917 0.57911754 0.0 0.0 0.4546976 0.0 0.1848408 0.0 0.0 
damage 0.43648964 0.7401073 0.7046616 0.0 0.0 0.5707752 0.0 0.19313279 0.0 0.0 
brought 0.2971754 0.54909086 0.51223254 0.0 0.0 0.41065595 0.0 0.23983458 0.0 0.0 
governor 0.42220438 0.7140032 0.6887106 0.0 0.0 0.54575455 0.0 0.17650226 0.0 0.0 
maintenance 0.47336572 0.7736126 0.7816894 0.0 0.0 0.6126284 0.0 0.16630487 0.0 0.0 
did 0.44438422 0.70466053 0.7057581 0.0 0.0 0.53766924 0.0 0.1830501 0.0 0.0 
british 0.4828108 0.76206625 0.7802975 0.0 0.0 0.5750995 0.0 0.18230234 0.0 0.0 
much 0.45396274 0.7106875 0.70627785 0.0 0.0 0.5236984 0.0 0.19312273 0.0 0.0 
hicks 0.32623214 0.6400114 0.5360309 0.0 0.0 0.4726324 0.0 0.19304961 0.0 0.0 
shot 0.31941694 0.59299934 0.52767 0.0 0.0 0.45497382 0.0 0.21304269 0.0 0.0 
nations 0.39303827 0.681926 0.67161167 0.0 0.0 0.5447927 0.0 0.18045507 0.0 0.0 
possible 0.39746147 0.6494547 0.62180865 0.0 0.0 0.4739951 0.0 0.21205889 0.0 0.0 
her 0.40185606 0.6925198 0.66306686 0.0 0.0 0.52455235 0.0 0.19203955 0.0 0.0 
party 0.4241293 0.7037009 0.688061 0.0 0.0 0.5179012 0.0 0.15478903 0.0 0.0 
pentagon 0.25954753 0.5996913 0.49446496 0.0 0.0 0.43944204 0.0 0.19999191 0.0 0.0 
peter 0.6737982 0.9428326 1.0357629 0.0 0.0 0.7168868 0.0 0.16159068 0.0 0.0 
building 0.55033576 0.8070531 0.8318114 0.0 0.0 0.62549347 0.0 0.17542095 0.0 0.0 
airline 0.5004043 0.7517041 0.7642906 0.0 0.0 0.57936674 0.0 0.16721445 0.0 0.0 
even 0.53143144 0.81727695 0.83651996 0.0 0.0 0.63856846 0.0 0.18000747 0.0 0.0 
return 0.33235663 0.610464 0.55549896 0.0 0.0 0.4459905 0.0 0.19157472 0.0 0.0 
armed 0.49091876 0.76162004 0.7520282 0.0 0.0 0.5866099 0.0 0.20502251 0.0 0.0 
asylum 0.4696927 0.69749427 0.732643 0.0 0.0 0.55517125 0.0 0.1755547 0.0 0.0 
lot 0.31629843 0.5767176 0.5204171 0.0 0.0 0.42989746 0.0 0.23284319 0.0 0.0 
eastern 0.35743117 0.63422465 0.566628 0.0 0.0 0.45623517 0.0 0.18762282 0.0 0.0 
winds 0.35623443 0.6350509 0.5880109 0.0 0.0 0.47251523 0.0 0.22990651 0.0 0.0 
council 0.4443609 0.79044795 0.7254007 0.0 0.0 0.6003078 0.0 0.17215419 0.0 0.0 
conditions 0.4162838 0.7044772 0.65984714 0.0 0.0 0.54359984 0.0 0.19775422 0.0 0.0 
such 0.36215454 0.62769115 0.5935534 0.0 0.0 0.48851007 0.0 0.22679281 0.0 0.0 
york 0.35189736 0.5808095 0.53561425 0.0 0.0 0.43550143 0.0 0.20598929 0.0 0.0 
despite 0.49855024 0.7294785 0.78794 0.0 0.0 0.5657466 0.0 0.18184046 0.0 0.0 
got 0.34683996 0.65068996 0.5829475 0.0 0.0 0.4761966 0.0 0.18803883 0.0 0.0 
hill 0.44941622 0.7481524 0.72228026 0.0 0.0 0.569983 0.0 0.18835157 0.0 0.0 
change 0.5106784 0.7892451 0.79493475 0.0 0.0 0.6284715 0.0 0.1714999 0.0 0.0 
cut 0.34988523 0.6530037 0.5870112 0.0 0.0 0.49510676 0.0 0.20333888 0.0 0.0 
safety 0.5574696 0.83941805 0.85902953 0.0 0.0 0.650776 0.0 0.15260033 0.0 0.0 
director 0.41998374 0.64264476 0.6577802 0.0 0.0 0.49134988 0.0 0.21812785 0.0 0.0 
without 0.529721 0.80621815 0.8210652 0.0 0.0 0.6198436 0.0 0.14349565 0.0 0.0 
dead 0.37970102 0.60338295 0.592787 0.0 0.0 0.48000062 0.0 0.22277963 0.0 0.0 
across 0.3726793 0.6136768 0.622167 0.0 0.0 0.48250806 0.0 0.21360391 0.0 0.0 
weekend 0.2797889 0.60704494 0.5110582 0.0 0.0 0.46518213 0.0 0.20949444 0.0 0.0 
violence 0.37372327 0.6019541 0.581488 0.0 0.0 0.46787858 0.0 0.22164403 0.0 0.0 
kandahar 0.39174145 0.665293 0.65848947 0.0 0.0 0.5184502 0.0 0.19562 0.0 0.0 
news 0.41503245 0.6752516 0.6426029 0.0 0.0 0.53142047 0.0 0.17220914 0.0 0.0 
cricket 0.37485415 0.61304855 0.5692916 0.0 0.0 0.4537527 0.0 0.19304478 0.0 0.0 
men 0.40830028 0.67857444 0.6330019 0.0 0.0 0.5094875 0.0 0.21689612 0.0 0.0 
lee 0.43832427 0.6982484 0.69796395 0.0 0.0 0.542512 0.0 0.17996365 0.0 0.0 
emergency 0.34738064 0.60537624 0.59698784 0.0 0.0 0.46680427 0.0 0.21332632 0.0 0.0 
far 0.20239592 0.49533084 0.40840885 0.0 0.0 0.34769312 0.0 0.18698318 0.0 0.0 
crew 0.38180286 0.61891353 0.6004131 0.0 0.0 0.45305103 0.0 0.20618737 0.0 0.0 
aircraft 0.57075524 0.81800807 0.83877635 0.0 0.0 0.62288344 0.0 0.18277104 0.0 0.0 
strong 0.47507447 0.7497091 0.74141693 0.0 0.0 0.5998014 0.0 0.18931016 0.0 0.0 
david 0.3953579 0.70951474 0.67000103 0.0 0.0 0.5495605 0.0 0.1886382 0.0 0.0 
here 0.32174462 0.57013166 0.52417874 0.0 0.0 0.4228924 0.0 0.17633954 0.0 0.0 
trade 0.24283063 0.51999056 0.44645748 0.0 0.0 0.38495013 0.0 0.21649894 0.0 0.0 
fighting 0.3741284 0.7043755 0.656852 0.0 0.0 0.5317843 0.0 0.16742772 0.0 0.0 
strip 0.25499576 0.50932777 0.44463393 0.0 0.0 0.34039664 0.0 0.21796885 0.0 0.0 
board 0.21123809 0.4861806 0.38032082 0.0 0.0 0.3526581 0.0 0.21509266 0.0 0.0 
palestinians 0.34515822 0.54919004 0.52248025 0.0 0.0 0.42943045 0.0 0.22563681 0.0 0.0 
role 0.28763026 0.62290084 0.52849424 0.0 0.0 0.44360515 0.0 0.16411103 0.0 0.0 
monday 0.47369242 0.7519903 0.7538341 0.0 0.0 0.5859437 0.0 0.19656987 0.0 0.0 
american 0.38234162 0.5940527 0.59403336 0.0 0.0 0.46097875 0.0 0.20615664 0.0 0.0 
home 0.41942233 0.6784617 0.65180194 0.0 0.0 0.5101489 0.0 0.1728236 0.0 0.0 
see 0.3191784 0.583969 0.53287375 0.0 0.0 0.41599593 0.0 0.19797832 0.0 0.0 
region 0.307137 0.61163604 0.4990165 0.0 0.0 0.4409563 0.0 0.19775702 0.0 0.0 
working 0.35187727 0.6271306 0.59201765 0.0 0.0 0.49118382 0.0 0.22456565 0.0 0.0 
captured 0.39389032 0.6734935 0.6080283 0.0 0.0 0.5121988 0.0 0.2132492 0.0 0.0 
training 0.38388187 0.66272867 0.6212863 0.0 0.0 0.48504245 0.0 0.17067188 0.0 0.0 
anti 0.47695297 0.7168586 0.715384 0.0 0.0 0.5688832 0.0 0.20489866 0.0 0.0 
continuing 0.3780117 0.6701921 0.62549484 0.0 0.0 0.50124454 0.0 0.19603512 0.0 0.0 
race 0.5565823 0.7909194 0.8459507 0.0 0.0 0.6527519 0.0 0.20971665 0.0 0.0 
december 0.29667175 0.59436536 0.53510666 0.0 0.0 0.45613623 0.0 0.2186259 0.0 0.0 
call 0.24131513 0.5006168 0.41260657 0.0 0.0 0.37841317 0.0 0.23040627 0.0 0.0 
economic 0.4863237 0.7618567 0.7811048 0.0 0.0 0.5939867 0.0 0.21330395 0.0 0.0 
too 0.4799747 0.7522515 0.742506 0.0 0.0 0.5579151 0.0 0.18070206 0.0 0.0 
southern 0.19588032 0.47796667 0.36834297 0.0 0.0 0.33887172 0.0 0.19702235 0.0 0.0 
fires 0.28568846 0.5770936 0.47374412 0.0 0.0 0.45865375 0.0 0.20183241 0.0 0.0 
country 0.2639168 0.5551995 0.45140198 0.0 0.0 0.40283254 0.0 0.24733455 0.0 0.0 
waugh 0.6837307 0.90648484 0.98410285 0.0 0.0 0.7133527 0.0 0.15678132 0.0 0.0 
seekers 0.48293847 0.7059523 0.75122714 0.0 0.0 0.55054104 0.0 0.21263099 0.0 0.0 
administration 0.43055803 0.6629541 0.6569376 0.0 0.0 0.5237512 0.0 0.17475206 0.0 0.0 
industry 0.35525566 0.63318443 0.5656651 0.0 0.0 0.48670256 0.0 0.22503719 0.0 0.0 
zinni 0.41240066 0.65813434 0.627092 0.0 0.0 0.486498 0.0 0.15542758 0.0 0.0 
charged 0.28778535 0.5540625 0.5080018 0.0 0.0 0.4099243 0.0 0.22981927 0.0 0.0 
water 0.27183294 0.5328196 0.4773732 0.0 0.0 0.38947272 0.0 0.19868018 0.0 0.0 
health 0.5441462 0.7509576 0.82562006 0.0 0.0 0.58517975 0.0 0.17482498 0.0 0.0 
used 0.3622418 0.6711947 0.63196325 0.0 0.0 0.522929 0.0 0.197106 0.0 0.0 
alliance 0.42966872 0.7428911 0.7081946 0.0 0.0 0.57332414 0.0 0.17689577 0.0 0.0 
george 0.46379083 0.6806532 0.68446195 0.0 0.0 0.530021 0.0 0.23699407 0.0 0.0 
plans 0.44658893 0.6904434 0.6894618 0.0 0.0 0.52729565 0.0 0.18818285 0.0 0.0 
bush 0.24355298 0.5026853 0.42296097 0.0 0.0 0.35314018 0.0 0.22207876 0.0 0.0 
bureau 0.45099878 0.6973417 0.692996 0.0 0.0 0.53407395 0.0 0.21354297 0.0 0.0 
act 0.2711007 0.561622 0.4777136 0.0 0.0 0.40436503 0.0 0.19299099 0.0 0.0 
received 0.36811364 0.6667206 0.5949248 0.0 0.0 0.47653848 0.0 0.18166332 0.0 0.0 
key 0.3748966 0.6438993 0.6221688 0.0 0.0 0.50228256 0.0 0.19403088 0.0 0.0 
offer 0.42301643 0.7120389 0.6530055 0.0 0.0 0.5496343 0.0 0.21356136 0.0 0.0 
head 0.2898193 0.5799966 0.49687615 0.0 0.0 0.42158455 0.0 0.2058882 0.0 0.0 
past 0.35186428 0.64263034 0.62308276 0.0 0.0 0.4868955 0.0 0.20099942 0.0 0.0 
rate 0.44402802 0.74994946 0.70712256 0.0 0.0 0.5930656 0.0 0.19262168 0.0 0.0 
leading 0.36843252 0.6512859 0.56185555 0.0 0.0 0.48266947 0.0 0.1790287 0.0 0.0 
station 0.43892866 0.7012663 0.700909 0.0 0.0 0.5274177 0.0 0.17358845 0.0 0.0 
risk 0.37436575 0.65935135 0.59247935 0.0 0.0 0.48212647 0.0 0.18228798 0.0 0.0 
large 0.2969181 0.58890355 0.5010414 0.0 0.0 0.43173835 0.0 0.174449 0.0 0.0 
department 0.31869286 0.620054 0.54543793 0.0 0.0 0.46377468 0.0 0.23099507 0.0 0.0 
airport 0.18320417 0.48826647 0.3533058 0.0 0.0 0.3282465 0.0 0.23415127 0.0 0.0 
legal 0.44435823 0.7119657 0.7145655 0.0 0.0 0.54872 0.0 0.1804263 0.0 0.0 
britain 0.36900663 0.6689676 0.6255176 0.0 0.0 0.53538966 0.0 0.23357236 0.0 0.0 
zealand 0.24393004 0.507962 0.40387544 0.0 0.0 0.38867074 0.0 0.23435786 0.0 0.0 
boat 0.21986794 0.4562884 0.38275054 0.0 0.0 0.33022168 0.0 0.23737235 0.0 0.0 
least 0.12753946 0.4054905 0.29301432 0.0 0.0 0.26188195 0.0 0.23629579 0.0 0.0 
hundreds 0.22372198 0.47462288 0.4245061 0.0 0.0 0.33730888 0.0 0.20942657 0.0 0.0 
issue 0.2381528 0.4797982 0.42980394 0.0 0.0 0.33152685 0.0 0.22201279 0.0 0.0 
town 0.27157968 0.4959374 0.4189112 0.0 0.0 0.35047227 0.0 0.21450843 0.0 0.0 
person 0.23751646 0.5479537 0.4273462 0.0 0.0 0.41483706 0.0 0.21373932 0.0 0.0 
decision 0.32780463 0.5634706 0.5734793 0.0 0.0 0.42820305 0.0 0.19076997 0.0 0.0 
soldiers 0.24658352 0.5043329 0.43484262 0.0 0.0 0.37077606 0.0 0.21363568 0.0 0.0 
known 0.23646933 0.5078881 0.4192517 0.0 0.0 0.37237808 0.0 0.22223234 0.0 0.0 
stop 0.42323858 0.6942104 0.6976261 0.0 0.0 0.5322637 0.0 0.20623808 0.0 0.0 
within 0.30589497 0.60127544 0.5223702 0.0 0.0 0.4520612 0.0 0.23256347 0.0 0.0 
operations 0.27426553 0.5044185 0.42796668 0.0 0.0 0.36473572 0.0 0.22416085 0.0 0.0 
captain 0.6006038 0.8847493 0.92697644 0.0 0.0 0.67675567 0.0 0.16700092 0.0 0.0 
israelis 0.31783348 0.6639526 0.58499014 0.0 0.0 0.5151663 0.0 0.20572796 0.0 0.0 
hih 0.43637973 0.7333689 0.6980436 0.0 0.0 0.5668592 0.0 0.18167515 0.0 0.0 
parliament 0.21393794 0.49542186 0.42336503 0.0 0.0 0.38242728 0.0 0.26524764 0.0 0.0 
major 0.4850493 0.75638974 0.75328887 0.0 0.0 0.57216525 0.0 0.17525467 0.0 0.0 
strikes 0.365686 0.6715808 0.62703395 0.0 0.0 0.5080122 0.0 0.18150568 0.0 0.0 
downer 0.29152387 0.5700313 0.5213722 0.0 0.0 0.4497454 0.0 0.20640327 0.0 0.0 
final 0.29091555 0.54341674 0.5292957 0.0 0.0 0.40836746 0.0 0.21813834 0.0 0.0 
use 0.46071142 0.7473868 0.740432 0.0 0.0 0.5636053 0.0 0.20157689 0.0 0.0 
your 0.55482596 0.80899155 0.84377277 0.0 0.0 0.63132143 0.0 0.18571687 0.0 0.0 
line 0.40446663 0.71005535 0.62894857 0.0 0.0 0.55404586 0.0 0.19757438 0.0 0.0 
may 0.45288026 0.73030853 0.7088953 0.0 0.0 0.5477495 0.0 0.16161492 0.0 0.0 
network 0.20436049 0.48700532 0.40635267 0.0 0.0 0.3501731 0.0 0.2195352 0.0 0.0 
late 0.30988693 0.6179956 0.53107274 0.0 0.0 0.47613758 0.0 0.20037235 0.0 0.0 
ahead 0.41724735 0.6989863 0.64830995 0.0 0.0 0.5539294 0.0 0.2000447 0.0 0.0 
homes 0.22616911 0.5247092 0.44006422 0.0 0.0 0.39711 0.0 0.21527544 0.0 0.0 
shane 0.48377115 0.7154064 0.75663936 0.0 0.0 0.5383958 0.0 0.17114705 0.0 0.0 
great 0.25799102 0.5405538 0.45014152 0.0 0.0 0.40360868 0.0 0.21309747 0.0 0.0 
officers 0.26633877 0.55185914 0.44581965 0.0 0.0 0.3860896 0.0 0.20000717 0.0 0.0 
kabul 0.2848612 0.5245582 0.46418646 0.0 0.0 0.38766608 0.0 0.19763014 0.0 0.0 
remain 0.30866605 0.56568384 0.49949965 0.0 0.0 0.41204992 0.0 0.21464619 0.0 0.0 
right 0.19506103 0.46014562 0.37088093 0.0 0.0 0.34192684 0.0 0.22536331 0.0 0.0 
western 0.2802794 0.54556 0.4792504 0.0 0.0 0.40633646 0.0 0.22079176 0.0 0.0 
half 0.18222779 0.46680436 0.36463687 0.0 0.0 0.3269005 0.0 0.22286156 0.0 0.0 
give 0.39613473 0.6387495 0.6250049 0.0 0.0 0.5019257 0.0 0.21172619 0.0 0.0 
due 0.26116616 0.56436753 0.4844387 0.0 0.0 0.4028007 0.0 0.17929631 0.0 0.0 
un 0.34407783 0.59281516 0.5771955 0.0 0.0 0.43688837 0.0 0.22107413 0.0 0.0 
my 0.15071288 0.3898765 0.28681728 0.0 0.0 0.26059785 0.0 0.22878145 0.0 0.0 
laws 0.16894111 0.46015197 0.35841063 0.0 0.0 0.33687168 0.0 0.25238916 0.0 0.0 
might 0.35420853 0.6029525 0.54983246 0.0 0.0 0.46503657 0.0 0.24012488 0.0 0.0 
plane 0.24976516 0.56204784 0.42474416 0.0 0.0 0.40500084 0.0 0.22252333 0.0 0.0 
taking 0.3727224 0.6344073 0.61644006 0.0 0.0 0.48400837 0.0 0.23160914 0.0 0.0 
interest 0.4473496 0.67670333 0.7169527 0.0 0.0 0.521689 0.0 0.1891985 0.0 0.0 
weapons 0.24136668 0.503584 0.43646088 0.0 0.0 0.36259454 0.0 0.19692379 0.0 0.0 
series 0.14185351 0.41355973 0.3133951 0.0 0.0 0.2823065 0.0 0.23265126 0.0 0.0 
latest 0.20733869 0.44332698 0.37249598 0.0 0.0 0.31024563 0.0 0.23556517 0.0 0.0 
every 0.33744502 0.63128734 0.56371164 0.0 0.0 0.47934324 0.0 0.19950783 0.0 0.0 
pm 0.2061067 0.42644313 0.3661305 0.0 0.0 0.29171544 0.0 0.2529877 0.0 0.0 
hollingworth 0.36854076 0.6137264 0.59293437 0.0 0.0 0.46377033 0.0 0.1929759 0.0 0.0 
coast 0.24276227 0.53267 0.45296672 0.0 0.0 0.39376873 0.0 0.18693335 0.0 0.0 
policy 0.3325563 0.6062777 0.55126536 0.0 0.0 0.44835573 0.0 0.21309379 0.0 0.0 
position 0.22614896 0.50940096 0.39935878 0.0 0.0 0.38324195 0.0 0.24230164 0.0 0.0 
later 0.28972763 0.5595417 0.48342308 0.0 0.0 0.40751547 0.0 0.22046012 0.0 0.0 
death 0.2739814 0.5450549 0.4395018 0.0 0.0 0.40638834 0.0 0.24045797 0.0 0.0 
able 0.24746948 0.501101 0.39340684 0.0 0.0 0.35533428 0.0 0.23102647 0.0 0.0 
tomorrow 0.45061082 0.68896306 0.7163317 0.0 0.0 0.5496009 0.0 0.2155075 0.0 0.0 
behind 0.42795223 0.64280593 0.6477461 0.0 0.0 0.49914974 0.0 0.19955724 0.0 0.0 
already 0.33313024 0.5908499 0.54929686 0.0 0.0 0.46468896 0.0 0.25378287 0.0 0.0 
flight 0.23229468 0.49888843 0.4363704 0.0 0.0 0.36117017 0.0 0.20131604 0.0 0.0 
special 0.2491858 0.5400617 0.4646292 0.0 0.0 0.40543148 0.0 0.21849084 0.0 0.0 
storm 0.2665944 0.5307728 0.48525634 0.0 0.0 0.41483834 0.0 0.23084521 0.0 0.0 
washington 0.14597335 0.42627394 0.3037975 0.0 0.0 0.30081916 0.0 0.21465233 0.0 0.0 
heard 0.23911968 0.4847118 0.43230543 0.0 0.0 0.35783544 0.0 0.25784674 0.0 0.0 
really 0.31508744 0.5247656 0.5055764 0.0 0.0 0.39147797 0.0 0.21712846 0.0 0.0 
others 0.27324122 0.50299776 0.4663643 0.0 0.0 0.37060294 0.0 0.23283744 0.0 0.0 
forced 0.26991707 0.5242096 0.48253772 0.0 0.0 0.38792405 0.0 0.22126983 0.0 0.0 
point 0.29018682 0.5467557 0.47269824 0.0 0.0 0.39397386 0.0 0.23570327 0.0 0.0 
failed 0.3092606 0.5464618 0.5001757 0.0 0.0 0.41490066 0.0 0.21818131 0.0 0.0 
hard 0.30494094 0.5783707 0.524066 0.0 0.0 0.41066343 0.0 0.2203333 0.0 0.0 
continue 0.23678029 0.45220652 0.40109727 0.0 0.0 0.33627743 0.0 0.23935339 0.0 0.0 
same 0.14947742 0.40203565 0.32976618 0.0 0.0 0.28442013 0.0 0.23865196 0.0 0.0 
territory 0.1732524 0.41158974 0.3353081 0.0 0.0 0.29637876 0.0 0.2731255 0.0 0.0 
jihad 0.3256818 0.5588784 0.49603495 0.0 0.0 0.42130822 0.0 0.23939721 0.0 0.0 
concerned 0.19014144 0.4763612 0.35893753 0.0 0.0 0.36193264 0.0 0.27025834 0.0 0.0 
jobs 0.25639957 0.5201056 0.45646998 0.0 0.0 0.35702413 0.0 0.22252074 0.0 0.0 
me 0.1942023 0.49975044 0.39224592 0.0 0.0 0.34366637 0.0 0.21198156 0.0 0.0 
victory 0.19926837 0.5110272 0.3894842 0.0 0.0 0.39116973 0.0 0.24829003 0.0 0.0 
cup 0.5567233 0.82385886 0.8865695 0.0 0.0 0.6367916 0.0 0.15349422 0.0 0.0 
event 0.36214226 0.6053159 0.555835 0.0 0.0 0.44996804 0.0 0.20784837 0.0 0.0 
campaign 0.2901683 0.58525765 0.48946217 0.0 0.0 0.445637 0.0 0.2557605 0.0 0.0 
guilty 0.19956934 0.49832416 0.39969382 0.0 0.0 0.36658508 0.0 0.23775856 0.0 0.0 
deaths 0.32639343 0.58640933 0.52830136 0.0 0.0 0.4466137 0.0 0.22630021 0.0 0.0 
side 0.1559329 0.40782908 0.31308302 0.0 0.0 0.2943544 0.0 0.22517307 0.0 0.0 
seen 0.16015929 0.49416655 0.32944718 0.0 0.0 0.3600528 0.0 0.21593848 0.0 0.0 
thought 0.047381222 0.34193 0.18427002 0.0 0.0 0.20885828 0.0 0.2237948 0.0 0.0 
along 0.3757133 0.6640842 0.6166439 0.0 0.0 0.4946466 0.0 0.17693909 0.0 0.0 
towards 0.35997367 0.6404158 0.5800772 0.0 0.0 0.50526154 0.0 0.23074241 0.0 0.0 
abuse 0.5056841 0.7338103 0.7869328 0.0 0.0 0.546058 0.0 0.15288718 0.0 0.0 
bill 0.24670392 0.5636549 0.48372474 0.0 0.0 0.43321702 0.0 0.22596046 0.0 0.0 
life 0.32075155 0.5732366 0.5214969 0.0 0.0 0.429459 0.0 0.2366248 0.0 0.0 
timor 0.40064108 0.6151557 0.60409 0.0 0.0 0.4602486 0.0 0.21612701 0.0 0.0 
cabinet 0.23282063 0.48143968 0.43639806 0.0 0.0 0.37699074 0.0 0.22682253 0.0 0.0 
bichel 0.2638026 0.5090895 0.4574404 0.0 0.0 0.37626234 0.0 0.22639266 0.0 0.0 
case 0.11262396 0.41911048 0.2841361 0.0 0.0 0.26947755 0.0 0.23706758 0.0 0.0 
weeks 0.28735733 0.52989495 0.4791719 0.0 0.0 0.38110274 0.0 0.19963306 0.0 0.0 
matter 0.112301975 0.37468123 0.24998531 0.0 0.0 0.26056227 0.0 0.26129305 0.0 0.0 
move 0.23519394 0.51447535 0.43971077 0.0 0.0 0.37234578 0.0 0.22427452 0.0 0.0 
bombings 0.18562683 0.4363526 0.35519925 0.0 0.0 0.31356758 0.0 0.2672913 0.0 0.0 
again 0.33894664 0.6139226 0.56173396 0.0 0.0 0.46037638 0.0 0.20368776 0.0 0.0 
middle 0.12361506 0.39986646 0.2815816 0.0 0.0 0.27027887 0.0 0.22772217 0.0 0.0 
capital 0.1596219 0.40846393 0.30169168 0.0 0.0 0.29250035 0.0 0.24306837 0.0 0.0 
envoy 0.16144586 0.43373767 0.34010866 0.0 0.0 0.30015635 0.0 0.22950724 0.0 0.0 
member 0.28201866 0.57452965 0.5088022 0.0 0.0 0.39825824 0.0 0.18134424 0.0 0.0 
november 0.19535604 0.4654042 0.3501341 0.0 0.0 0.3392717 0.0 0.23715924 0.0 0.0 
countries 0.34275532 0.5975988 0.53626513 0.0 0.0 0.46532333 0.0 0.22776937 0.0 0.0 
details 0.11631596 0.40284693 0.2823046 0.0 0.0 0.28139418 0.0 0.2106336 0.0 0.0 
space 0.3763594 0.64386153 0.6224618 0.0 0.0 0.5082294 0.0 0.23220946 0.0 0.0 
woomera 0.10683632 0.4307998 0.27349636 0.0 0.0 0.31136248 0.0 0.22272265 0.0 0.0 
warne 0.36077726 0.6523824 0.6169565 0.0 0.0 0.51343685 0.0 0.2037352 0.0 0.0 
detention 0.09466761 0.38815796 0.23766541 0.0 0.0 0.25062937 0.0 0.22689764 0.0 0.0 
bowler 0.52612764 0.804191 0.79494834 0.0 0.0 0.6209546 0.0 0.19581887 0.0 0.0 
sunday 0.27378774 0.5778543 0.5084646 0.0 0.0 0.43039817 0.0 0.18400693 0.0 0.0 
seven 0.3070665 0.5360385 0.500406 0.0 0.0 0.39646086 0.0 0.23197876 0.0 0.0 
likely 0.16012958 0.45966527 0.32463774 0.0 0.0 0.31832215 0.0 0.24232873 0.0 0.0 
situation 0.2646832 0.5275843 0.43756363 0.0 0.0 0.39450556 0.0 0.1996 0.0 0.0 
according 0.22282544 0.4952984 0.39562854 0.0 0.0 0.38329086 0.0 0.2588125 0.0 0.0 
buildings 0.2883814 0.48050356 0.4448618 0.0 0.0 0.35579732 0.0 0.23806038 0.0 0.0 
mark 0.38781595 0.6443051 0.6240903 0.0 0.0 0.49269575 0.0 0.1823149 0.0 0.0 
rates 0.48874003 0.77524614 0.769716 0.0 0.0 0.59833413 0.0 0.17881939 0.0 0.0 
canyoning 0.3967086 0.69266105 0.66898763 0.0 0.0 0.5130389 0.0 0.19196242 0.0 0.0 
th 0.24793649 0.53355455 0.44094637 0.0 0.0 0.38525918 0.0 0.20072457 0.0 0.0 
bombing 0.21354643 0.50498694 0.3945895 0.0 0.0 0.35309464 0.0 0.21057723 0.0 0.0 
hour 0.29641914 0.5426754 0.48221675 0.0 0.0 0.42459077 0.0 0.25407392 0.0 0.0 
enough 0.20981777 0.46940312 0.3534645 0.0 0.0 0.3331185 0.0 0.25309595 0.0 0.0 
innings 0.28567284 0.5194298 0.47516695 0.0 0.0 0.3924071 0.0 0.2511756 0.0 0.0 
important 0.18907017 0.44463807 0.33663782 0.0 0.0 0.30328712 0.0 0.21764626 0.0 0.0 
mcgrath 0.31703758 0.58246183 0.5014893 0.0 0.0 0.44027567 0.0 0.22625528 0.0 0.0 
launched 0.24684429 0.502128 0.4681485 0.0 0.0 0.38526267 0.0 0.22816022 0.0 0.0 
bus 0.27531815 0.50574076 0.43990245 0.0 0.0 0.36712486 0.0 0.24033765 0.0 0.0 
helicopters 0.42474622 0.6434543 0.6723641 0.0 0.0 0.49372953 0.0 0.19670558 0.0 0.0 
perth 0.18402511 0.44939628 0.32452157 0.0 0.0 0.3216719 0.0 0.23232411 0.0 0.0 
young 0.25392038 0.48120368 0.40753278 0.0 0.0 0.38560838 0.0 0.27956682 0.0 0.0 
asio 0.28583032 0.5339118 0.4798641 0.0 0.0 0.39456615 0.0 0.21450807 0.0 0.0 
caught 0.21851015 0.4704605 0.41550186 0.0 0.0 0.32416806 0.0 0.2271997 0.0 0.0 
movement 0.38510823 0.64838946 0.63366175 0.0 0.0 0.47011483 0.0 0.2032349 0.0 0.0 
human 0.24882597 0.5098765 0.4562926 0.0 0.0 0.37114814 0.0 0.21555397 0.0 0.0 
money 0.23568043 0.4803368 0.40481916 0.0 0.0 0.32806838 0.0 0.22600022 0.0 0.0 
sure 0.12567699 0.36487553 0.23588815 0.0 0.0 0.23823228 0.0 0.22933349 0.0 0.0 
own 0.1433773 0.40387863 0.2905741 0.0 0.0 0.29835534 0.0 0.23952606 0.0 0.0 
women 0.1814866 0.4208399 0.34215727 0.0 0.0 0.3082964 0.0 0.23386264 0.0 0.0 
run 0.15869015 0.4525649 0.3180506 0.0 0.0 0.30793458 0.0 0.23481345 0.0 0.0 
disease 0.17104352 0.41662934 0.31396428 0.0 0.0 0.30033162 0.0 0.25064218 0.0 0.0 
top 0.17968592 0.47647104 0.33158043 0.0 0.0 0.34726605 0.0 0.25940844 0.0 0.0 
immediately 0.20651421 0.48935845 0.39591697 0.0 0.0 0.34009802 0.0 0.22495937 0.0 0.0 
dispute 0.22605577 0.5385562 0.4094225 0.0 0.0 0.39760986 0.0 0.25059906 0.0 0.0 
cancer 0.35241234 0.66020155 0.62303483 0.0 0.0 0.48792154 0.0 0.18316914 0.0 0.0 
adventure 0.1086984 0.41535115 0.2645091 0.0 0.0 0.27523276 0.0 0.21964096 0.0 0.0 
targets 0.18308496 0.46155095 0.33814386 0.0 0.0 0.34841952 0.0 0.2742077 0.0 0.0 
added 0.22811005 0.47088858 0.394204 0.0 0.0 0.3513839 0.0 0.23624596 0.0 0.0 
aedt 0.22438294 0.4591358 0.3776451 0.0 0.0 0.33811963 0.0 0.21669579 0.0 0.0 
show 0.16208157 0.39800495 0.311771 0.0 0.0 0.2974928 0.0 0.23562096 0.0 0.0 
swiss 0.22432321 0.48238075 0.41285267 0.0 0.0 0.35034817 0.0 0.23798503 0.0 0.0 
ms 0.27938622 0.5721607 0.49512187 0.0 0.0 0.41357052 0.0 0.23226807 0.0 0.0 
guides 0.1961594 0.48106453 0.37969956 0.0 0.0 0.34668648 0.0 0.25692314 0.0 0.0 
african 0.3205045 0.5367557 0.50791943 0.0 0.0 0.43437904 0.0 0.2476486 0.0 0.0 
raids 0.24804169 0.4773202 0.4260691 0.0 0.0 0.3352935 0.0 0.22777145 0.0 0.0 
wants 0.22357243 0.48213992 0.39814064 0.0 0.0 0.37220788 0.0 0.23775966 0.0 0.0 
mission 0.21224383 0.4785059 0.36647704 0.0 0.0 0.33733472 0.0 0.22996491 0.0 0.0 
opened 0.21788186 0.4806379 0.3972766 0.0 0.0 0.3537397 0.0 0.21727382 0.0 0.0 
political 0.33690822 0.62093854 0.56366515 0.0 0.0 0.46399432 0.0 0.1850783 0.0 0.0 
warplanes 0.18624198 0.48835316 0.4063479 0.0 0.0 0.34596744 0.0 0.22373046 0.0 0.0 
forward 0.22262982 0.47046936 0.3894436 0.0 0.0 0.3299475 0.0 0.23945716 0.0 0.0 
reported 0.08561313 0.32582474 0.23329976 0.0 0.0 0.21246818 0.0 0.27925172 0.0 0.0 
based 0.23812866 0.46054223 0.42286715 0.0 0.0 0.33638695 0.0 0.20584038 0.0 0.0 
rule 0.23876452 0.53471684 0.4218658 0.0 0.0 0.39573953 0.0 0.20953321 0.0 0.0 
claimed 0.38074857 0.68218875 0.62592363 0.0 0.0 0.50726676 0.0 0.21017933 0.0 0.0 
jail 0.20125169 0.47432262 0.35661802 0.0 0.0 0.3470311 0.0 0.24959603 0.0 0.0 
freeze 0.18930161 0.42950726 0.35165152 0.0 0.0 0.30507806 0.0 0.2403507 0.0 0.0 
office 0.1031625 0.34164143 0.22945485 0.0 0.0 0.2355904 0.0 0.27585042 0.0 0.0 
justice 0.29049098 0.59487104 0.4934021 0.0 0.0 0.43499118 0.0 0.20825538 0.0 0.0 
blue 0.38373607 0.65177107 0.61344075 0.0 0.0 0.5074029 0.0 0.21681438 0.0 0.0 
deal 0.11016664 0.40264305 0.24432668 0.0 0.0 0.28207153 0.0 0.23897627 0.0 0.0 
carried 0.07540098 0.32093245 0.17058271 0.0 0.0 0.21172401 0.0 0.26813507 0.0 0.0 
evidence 0.10988569 0.3515454 0.24374732 0.0 0.0 0.26013136 0.0 0.29293984 0.0 0.0 
commonwealth 0.27066326 0.57052755 0.4840074 0.0 0.0 0.4302747 0.0 0.19499767 0.0 0.0 
boy 0.14584613 0.42547864 0.3130096 0.0 0.0 0.32142946 0.0 0.2758996 0.0 0.0 
full 0.26596677 0.56334245 0.49990502 0.0 0.0 0.4199489 0.0 0.23040977 0.0 0.0 
certainly 0.10082257 0.38589945 0.23713714 0.0 0.0 0.28459102 0.0 0.23739614 0.0 0.0 
become 0.22844207 0.46613604 0.41635552 0.0 0.0 0.34706926 0.0 0.26386887 0.0 0.0 
allegations 0.23168486 0.49508488 0.39360043 0.0 0.0 0.37045285 0.0 0.21862394 0.0 0.0 
although 0.04231721 0.30987212 0.17559734 0.0 0.0 0.22619167 0.0 0.24989665 0.0 0.0 
proposed 0.31360024 0.59800375 0.5458591 0.0 0.0 0.43478334 0.0 0.21954508 0.0 0.0 
burning 0.14984092 0.44353792 0.32011518 0.0 0.0 0.30845374 0.0 0.21789753 0.0 0.0 
always 0.19961101 0.44987383 0.3440849 0.0 0.0 0.3253729 0.0 0.24647857 0.0 0.0 
sector 0.1782654 0.39898953 0.32174543 0.0 0.0 0.28555644 0.0 0.24955973 0.0 0.0 
ground 0.12344015 0.4161329 0.29164204 0.0 0.0 0.2833608 0.0 0.24237591 0.0 0.0 
break 0.21098047 0.44965312 0.36786017 0.0 0.0 0.32920575 0.0 0.24867432 0.0 0.0 
find 0.10063982 0.3600232 0.22635862 0.0 0.0 0.24809971 0.0 0.23235525 0.0 0.0 
planning 0.11317769 0.37869552 0.23329821 0.0 0.0 0.2675056 0.0 0.24508859 0.0 0.0 
probably 0.18852046 0.43622583 0.3218585 0.0 0.0 0.2982176 0.0 0.21022196 0.0 0.0 
flying 0.19425252 0.43732384 0.36636087 0.0 0.0 0.32287475 0.0 0.23944916 0.0 0.0 
each 0.24546671 0.47425765 0.4049001 0.0 0.0 0.34366924 0.0 0.24664302 0.0 0.0 
result 0.16468394 0.4229345 0.32381085 0.0 0.0 0.29113808 0.0 0.26046228 0.0 0.0 
march 0.28321946 0.5641769 0.49225846 0.0 0.0 0.43730935 0.0 0.22384834 0.0 0.0 
order 0.052110434 0.31209847 0.15763476 0.0 0.0 0.20444408 0.0 0.26948696 0.0 0.0 
access 0.13198549 0.42274508 0.30081907 0.0 0.0 0.29414025 0.0 0.23751438 0.0 0.0 
collapse 0.20857257 0.45925707 0.39341304 0.0 0.0 0.3142707 0.0 0.2320063 0.0 0.0 
job 0.3347122 0.5718746 0.5506793 0.0 0.0 0.41080052 0.0 0.18745679 0.0 0.0 
island 0.22309157 0.48062247 0.38764438 0.0 0.0 0.35100442 0.0 0.20554578 0.0 0.0 
face 0.22779095 0.5289999 0.43133506 0.0 0.0 0.38079304 0.0 0.22542016 0.0 0.0 
border 0.18794304 0.45066383 0.36445323 0.0 0.0 0.319084 0.0 0.22035667 0.0 0.0 
banks 0.15260154 0.37605637 0.25256026 0.0 0.0 0.26557708 0.0 0.27861816 0.0 0.0 
wicket 0.3002528 0.5596973 0.5127702 0.0 0.0 0.44689882 0.0 0.25343087 0.0 0.0 
financial 0.28569937 0.57880974 0.5036199 0.0 0.0 0.44899878 0.0 0.24932177 0.0 0.0 
prepared 0.0 0.26892123 0.07777634 0.0 0.0 0.16450813 0.0 0.28107405 0.0 0.0 
reached 0.27082455 0.5212493 0.44409952 0.0 0.0 0.3924746 0.0 0.25914526 0.0 0.0 
beat 0.14998376 0.40200123 0.28158513 0.0 0.0 0.28612992 0.0 0.22133541 0.0 0.0 
using 0.16515958 0.46900842 0.3399739 0.0 0.0 0.30469674 0.0 0.21012898 0.0 0.0 
growth 0.22457999 0.49699512 0.4291385 0.0 0.0 0.37134197 0.0 0.22742736 0.0 0.0 
investigation 0.12743717 0.37559468 0.27237758 0.0 0.0 0.2831522 0.0 0.2692801 0.0 0.0 
times 0.18587112 0.45151466 0.3449013 0.0 0.0 0.3148151 0.0 0.23551808 0.0 0.0 
carrying 0.25508916 0.5315435 0.46476433 0.0 0.0 0.40107834 0.0 0.21121004 0.0 0.0 
crash 0.21244448 0.5348487 0.43188438 0.0 0.0 0.38345036 0.0 0.21773769 0.0 0.0 
tourists 0.19198567 0.4682093 0.34436628 0.0 0.0 0.32564244 0.0 0.2410625 0.0 0.0 
drop 0.18483987 0.46614888 0.37854198 0.0 0.0 0.34703285 0.0 0.24472484 0.0 0.0 
tried 0.09709349 0.3648248 0.22600493 0.0 0.0 0.26138282 0.0 0.2439221 0.0 0.0 
himself 0.25034732 0.5203759 0.44801155 0.0 0.0 0.38273966 0.0 0.22369131 0.0 0.0 
serious 0.18297738 0.4206971 0.315482 0.0 0.0 0.30231297 0.0 0.24901357 0.0 0.0 
bid 0.14794141 0.39160845 0.27416483 0.0 0.0 0.27377644 0.0 0.2722158 0.0 0.0 
short 0.3289792 0.58171165 0.53784764 0.0 0.0 0.43143448 0.0 0.19538698 0.0 0.0 
surrender 0.1297574 0.3920818 0.2766094 0.0 0.0 0.2666908 0.0 0.21724963 0.0 0.0 
believes 0.09192312 0.31506392 0.19981131 0.0 0.0 0.20567653 0.0 0.2659362 0.0 0.0 
energy 0.35676968 0.6664823 0.62840974 0.0 0.0 0.52769834 0.0 0.23808788 0.0 0.0 
needs 0.10293913 0.4358226 0.26760134 0.0 0.0 0.28379238 0.0 0.23399618 0.0 0.0 
thursday 0.10524261 0.32095137 0.22101808 0.0 0.0 0.21612805 0.0 0.27567393 0.0 0.0 
road 0.082247615 0.36558074 0.19973284 0.0 0.0 0.23517591 0.0 0.23282705 0.0 0.0 
reserve 0.14852601 0.38272575 0.2961267 0.0 0.0 0.28252766 0.0 0.22823615 0.0 0.0 
organisation 0.17343265 0.44962254 0.35404536 0.0 0.0 0.33041975 0.0 0.22311486 0.0 0.0 
suspected 0.24390024 0.51764417 0.41443184 0.0 0.0 0.37157 0.0 0.211288 0.0 0.0 
stage 0.007875979 0.2810244 0.10163161 0.0 0.0 0.14368382 0.0 0.24405845 0.0 0.0 
calls 0.27373546 0.5066748 0.46985635 0.0 0.0 0.39579856 0.0 0.24198443 0.0 0.0 
fight 0.14149979 0.42419252 0.30973855 0.0 0.0 0.3295314 0.0 0.23969984 0.0 0.0 
travel 0.24695748 0.5268954 0.44307515 0.0 0.0 0.36480623 0.0 0.20509978 0.0 0.0 
responsibility 0.103245795 0.39579645 0.25614575 0.0 0.0 0.2932142 0.0 0.2519793 0.0 0.0 
until 0.124185205 0.44308835 0.30726245 0.0 0.0 0.30602527 0.0 0.23265025 0.0 0.0 
militant 0.21245131 0.4774812 0.35921547 0.0 0.0 0.36540174 0.0 0.24979697 0.0 0.0 
sex 0.22127524 0.5232959 0.41826114 0.0 0.0 0.3752547 0.0 0.21370515 0.0 0.0 
quickly 0.19386533 0.50302815 0.39423278 0.0 0.0 0.37590104 0.0 0.22876772 0.0 0.0 
management 0.15060824 0.4679455 0.32301667 0.0 0.0 0.3485145 0.0 0.24957804 0.0 0.0 
harrison 0.27868235 0.48707107 0.45714816 0.0 0.0 0.3646164 0.0 0.25192982 0.0 0.0 
future 0.006305754 0.35705543 0.13536203 0.0 0.0 0.22185877 0.0 0.25009325 0.0 0.0 
thousands 0.06725675 0.3265207 0.18883291 0.0 0.0 0.19633463 0.0 0.27320176 0.0 0.0 
lives 0.049405873 0.34701756 0.19223389 0.0 0.0 0.24494871 0.0 0.27724543 0.0 0.0 
senator 0.10885346 0.4121328 0.27249405 0.0 0.0 0.29105243 0.0 0.25360504 0.0 0.0 
bowling 0.2355859 0.4583648 0.37317714 0.0 0.0 0.32439125 0.0 0.22174622 0.0 0.0 
immigration 0.19966638 0.45256197 0.37405708 0.0 0.0 0.30476457 0.0 0.22816804 0.0 0.0 
howard 0.12794709 0.3848321 0.25336656 0.0 0.0 0.2533374 0.0 0.23428907 0.0 0.0 
trees 0.31976104 0.5809959 0.50542367 0.0 0.0 0.4138613 0.0 0.22022991 0.0 0.0 
ariel 0.08584592 0.36444235 0.23247877 0.0 0.0 0.24206993 0.0 0.2710671 0.0 0.0 
went 0.0 0.16794328 0.0 0.0 0.0 0.064314805 0.0 0.27573982 0.0 0.0 
comes 0.08184415 0.35708028 0.20620373 0.0 0.0 0.23589197 0.0 0.27254233 0.0 0.0 
opening 0.19564348 0.4036882 0.33263955 0.0 0.0 0.29113325 0.0 0.2726795 0.0 0.0 
wave 0.22511798 0.48864543 0.41546342 0.0 0.0 0.3750567 0.0 0.23622176 0.0 0.0 
militia 0.15566951 0.45566943 0.31078067 0.0 0.0 0.30217728 0.0 0.22799043 0.0 0.0 
executive 0.31048828 0.5988612 0.5330447 0.0 0.0 0.45650244 0.0 0.23552974 0.0 0.0 
argentina 0.10891795 0.34505907 0.22041959 0.0 0.0 0.24104834 0.0 0.24525401 0.0 0.0 
inside 0.13979527 0.40872458 0.27483872 0.0 0.0 0.30270827 0.0 0.26576838 0.0 0.0 
killing 0.18923324 0.49083772 0.3525984 0.0 0.0 0.3474675 0.0 0.21240619 0.0 0.0 
relations 0.2713769 0.48802787 0.44611493 0.0 0.0 0.33846956 0.0 0.2152794 0.0 0.0 
outside 0.22247547 0.5565592 0.43845657 0.0 0.0 0.39717504 0.0 0.19074976 0.0 0.0 
sent 0.13824263 0.37959874 0.2652783 0.0 0.0 0.2658384 0.0 0.26276928 0.0 0.0 
ansett 0.16016781 0.46027213 0.33083597 0.0 0.0 0.32740313 0.0 0.20283142 0.0 0.0 
declared 0.16134095 0.42944545 0.33466598 0.0 0.0 0.29552972 0.0 0.21289194 0.0 0.0 
kilometres 0.16357127 0.45565724 0.31292573 0.0 0.0 0.3512614 0.0 0.23630601 0.0 0.0 
flights 0.18581921 0.40315688 0.28764185 0.0 0.0 0.28769955 0.0 0.26952037 0.0 0.0 
afp 0.101774484 0.35887268 0.24946138 0.0 0.0 0.24328378 0.0 0.25955975 0.0 0.0 
different 0.23380518 0.54886067 0.41551134 0.0 0.0 0.38640487 0.0 0.19519381 0.0 0.0 
alleged 0.13530064 0.37247133 0.25636303 0.0 0.0 0.264644 0.0 0.26105434 0.0 0.0 
soon 0.049017727 0.29395118 0.14029247 0.0 0.0 0.19595188 0.0 0.27855104 0.0 0.0 
caves 0.03926587 0.35476163 0.15092838 0.0 0.0 0.21278718 0.0 0.2196243 0.0 0.0 
post 0.13644174 0.40499955 0.2682784 0.0 0.0 0.28660017 0.0 0.25337717 0.0 0.0 
rejected 0.12882575 0.40997732 0.28314945 0.0 0.0 0.28094035 0.0 0.23246795 0.0 0.0 
making 0.117341965 0.41593456 0.2562814 0.0 0.0 0.28002656 0.0 0.24039304 0.0 0.0 
allow 0.34851104 0.5628699 0.52312136 0.0 0.0 0.41149879 0.0 0.23278941 0.0 0.0 
clear 0.0 0.3116769 0.1301541 0.0 0.0 0.18251234 0.0 0.2532314 0.0 0.0 
program 0.15944916 0.3937964 0.29446724 0.0 0.0 0.2833531 0.0 0.24513727 0.0 0.0 
hewitt 0.111389935 0.42175192 0.2530049 0.0 0.0 0.28326017 0.0 0.2441474 0.0 0.0 
getting 0.23761481 0.50622344 0.40947196 0.0 0.0 0.36280397 0.0 0.24314691 0.0 0.0 
radical 0.24506241 0.5083947 0.41783544 0.0 0.0 0.36113143 0.0 0.24583764 0.0 0.0 
inquiry 0.18362573 0.44564798 0.32202604 0.0 0.0 0.32065398 0.0 0.21770293 0.0 0.0 
kallis 0.24484152 0.5247011 0.44340035 0.0 0.0 0.36251688 0.0 0.19967459 0.0 0.0 
running 0.059981912 0.36332497 0.19978455 0.0 0.0 0.22857472 0.0 0.25673872 0.0 0.0 
decided 0.14919981 0.40381727 0.3169584 0.0 0.0 0.28239334 0.0 0.21829143 0.0 0.0 
destroyed 0.060526162 0.3029288 0.17945254 0.0 0.0 0.19860363 0.0 0.23335353 0.0 0.0 
jewish 0.08472735 0.30807936 0.20327047 0.0 0.0 0.20799178 0.0 0.24427205 0.0 0.0 
biggest 0.10972425 0.32805926 0.22822851 0.0 0.0 0.23306462 0.0 0.2536974 0.0 0.0 
refused 0.16776541 0.42448637 0.3330116 0.0 0.0 0.26752064 0.0 0.23751998 0.0 0.0 
yacht 0.13056892 0.43433592 0.27265164 0.0 0.0 0.29507422 0.0 0.2028429 0.0 0.0 
list 0.0 0.23588501 0.09505233 0.0 0.0 0.1625298 0.0 0.26968023 0.0 0.0 
response 0.18006128 0.47832814 0.3522989 0.0 0.0 0.3580603 0.0 0.23046577 0.0 0.0 
july 0.18638739 0.45675954 0.3526316 0.0 0.0 0.3324924 0.0 0.25563556 0.0 0.0 
form 0.1426506 0.39122674 0.25330335 0.0 0.0 0.26705638 0.0 0.2202152 0.0 0.0 
witnesses 0.10788298 0.3456285 0.25572544 0.0 0.0 0.23965156 0.0 0.23346578 0.0 0.0 
yet 0.017683238 0.27542278 0.101175874 0.0 0.0 0.1686553 0.0 0.25011903 0.0 0.0 
increase 0.15332544 0.40964726 0.3047898 0.0 0.0 0.27389735 0.0 0.22073412 0.0 0.0 
school 0.28315252 0.52395713 0.50720656 0.0 0.0 0.39649072 0.0 0.22736466 0.0 0.0 
alexander 0.17919865 0.47655603 0.36413506 0.0 0.0 0.35767058 0.0 0.20981593 0.0 0.0 
look 0.036266655 0.3464664 0.15159649 0.0 0.0 0.21676582 0.0 0.19654721 0.0 0.0 
try 0.102644235 0.4157537 0.2816533 0.0 0.0 0.27919966 0.0 0.21488643 0.0 0.0 
tanks 0.03126988 0.31810772 0.13676214 0.0 0.0 0.20420936 0.0 0.29181576 0.0 0.0 
television 0.13447255 0.35521373 0.23331109 0.0 0.0 0.24615055 0.0 0.2724439 0.0 0.0 
quite 0.1608665 0.39096126 0.2828109 0.0 0.0 0.2687576 0.0 0.2245567 0.0 0.0 
address 0.11943948 0.38343906 0.2837915 0.0 0.0 0.24135816 0.0 0.23838587 0.0 0.0 
something 0.015414625 0.30040663 0.117842734 0.0 0.0 0.17052907 0.0 0.25174516 0.0 0.0 
actually 0.13966754 0.39804426 0.2901133 0.0 0.0 0.28866154 0.0 0.22391483 0.0 0.0 
attempt 0.040394276 0.31913418 0.15254968 0.0 0.0 0.19828025 0.0 0.26031768 0.0 0.0 
among 0.18352982 0.46707687 0.33743712 0.0 0.0 0.31329358 0.0 0.23065569 0.0 0.0 
available 0.091112316 0.35207945 0.2122564 0.0 0.0 0.2211315 0.0 0.2476399 0.0 0.0 
rights 0.19387224 0.45248172 0.35908154 0.0 0.0 0.3236401 0.0 0.24019751 0.0 0.0 
ministers 0.06650007 0.32110086 0.19204932 0.0 0.0 0.23788032 0.0 0.27030715 0.0 0.0 
accident 0.1442298 0.41774693 0.30936244 0.0 0.0 0.3183993 0.0 0.28306225 0.0 0.0 
rural 0.08900386 0.31835264 0.186582 0.0 0.0 0.19943434 0.0 0.27433434 0.0 0.0 
terms 0.08600998 0.34313315 0.23476538 0.0 0.0 0.22743788 0.0 0.2500058 0.0 0.0 
meet 0.051922858 0.28144643 0.15200573 0.0 0.0 0.18670088 0.0 0.2838043 0.0 0.0 
agency 0.22167033 0.49225476 0.41394338 0.0 0.0 0.38246155 0.0 0.23122224 0.0 0.0 
happened 0.07881561 0.36843503 0.21658376 0.0 0.0 0.23829836 0.0 0.25500417 0.0 0.0 
brisbane 0.20639357 0.48692444 0.40174225 0.0 0.0 0.35289103 0.0 0.20719291 0.0 0.0 
parties 0.18191195 0.41547102 0.34078875 0.0 0.0 0.31716645 0.0 0.2505345 0.0 0.0 
warned 0.13283217 0.45544285 0.29436854 0.0 0.0 0.30533448 0.0 0.22105378 0.0 0.0 
means 0.073448956 0.36205763 0.1977601 0.0 0.0 0.26386094 0.0 0.24609724 0.0 0.0 
fighter 0.263866 0.5207385 0.46301094 0.0 0.0 0.40571305 0.0 0.23182076 0.0 0.0 
source 0.0664998 0.3182264 0.1965971 0.0 0.0 0.1995737 0.0 0.25878134 0.0 0.0 
issues 0.28532404 0.5051687 0.46759632 0.0 0.0 0.37564468 0.0 0.21499005 0.0 0.0 
rise 0.15346429 0.45359492 0.31321535 0.0 0.0 0.31703985 0.0 0.23519382 0.0 0.0 
understand 0.0937368 0.41531873 0.2283437 0.0 0.0 0.27897894 0.0 0.20946056 0.0 0.0 
measures 0.09377068 0.3625876 0.253145 0.0 0.0 0.27432635 0.0 0.25111702 0.0 0.0 
victoria 0.09706372 0.39705846 0.22859484 0.0 0.0 0.26411688 0.0 0.24876145 0.0 0.0 
anything 0.14642262 0.41418806 0.30760363 0.0 0.0 0.27387407 0.0 0.22713158 0.0 0.0 
offices 0.035249323 0.33194172 0.14616963 0.0 0.0 0.23283583 0.0 0.26442075 0.0 0.0 
karzai 0.103723496 0.37610158 0.27495548 0.0 0.0 0.27303475 0.0 0.24894084 0.0 0.0 
circumstances 0.14593583 0.43924314 0.3078095 0.0 0.0 0.28637588 0.0 0.20855957 0.0 0.0 
sea 0.08034217 0.41846862 0.25723192 0.0 0.0 0.3032982 0.0 0.23436204 0.0 0.0 
returned 0.010645747 0.3356359 0.107783526 0.0 0.0 0.20850036 0.0 0.2407886 0.0 0.0 
ruddock 0.13592133 0.40067512 0.28596428 0.0 0.0 0.26118362 0.0 0.24817327 0.0 0.0 
residents 0.1158908 0.36246124 0.24566191 0.0 0.0 0.27756524 0.0 0.25968543 0.0 0.0 
wounded 0.07189074 0.33934042 0.21949086 0.0 0.0 0.21211302 0.0 0.23566836 0.0 0.0 
done 0.15939242 0.395206 0.30716726 0.0 0.0 0.2897675 0.0 0.23476456 0.0 0.0 
directors 0.1490795 0.39941856 0.30856577 0.0 0.0 0.28640613 0.0 0.22406821 0.0 0.0 
shortly 0.23339844 0.5059992 0.4200782 0.0 0.0 0.39117604 0.0 0.250325 0.0 0.0 
annual 0.17961937 0.49439353 0.38284668 0.0 0.0 0.3759491 0.0 0.22292 0.0 0.0 
changes 0.12815404 0.4540653 0.29330042 0.0 0.0 0.31262833 0.0 0.23800187 0.0 0.0 
parts 0.08753806 0.3478805 0.21420527 0.0 0.0 0.22445819 0.0 0.25471127 0.0 0.0 
gunmen 0.0063665807 0.23234636 0.07229197 0.0 0.0 0.14422974 0.0 0.25011018 0.0 0.0 
donald 0.21372753 0.48054743 0.3983291 0.0 0.0 0.3614606 0.0 0.23599228 0.0 0.0 
sentence 0.114450455 0.37109604 0.23322263 0.0 0.0 0.25446624 0.0 0.22545736 0.0 0.0 
wickets 0.023018599 0.28522652 0.12993562 0.0 0.0 0.19156972 0.0 0.2605757 0.0 0.0 
figures 0.13008428 0.40333632 0.3142046 0.0 0.0 0.28327897 0.0 0.20656782 0.0 0.0 
ended 0.05967942 0.29666525 0.17303601 0.0 0.0 0.18842626 0.0 0.28001234 0.0 0.0 
bombers 0.2388401 0.50531745 0.4215354 0.0 0.0 0.37932527 0.0 0.23596779 0.0 0.0 
white 0.12012631 0.41112646 0.27769563 0.0 0.0 0.28558332 0.0 0.21937531 0.0 0.0 
sources 0.089342505 0.36667618 0.20424223 0.0 0.0 0.25380456 0.0 0.24732277 0.0 0.0 
currently 0.17860028 0.4814002 0.35419926 0.0 0.0 0.32737038 0.0 0.2118306 0.0 0.0 
open 0.23537725 0.5180516 0.4042624 0.0 0.0 0.3885566 0.0 0.2674938 0.0 0.0 
announced 0.055624187 0.36031523 0.20436344 0.0 0.0 0.23696312 0.0 0.24153881 0.0 0.0 
nine 0.0 0.27571332 0.10065848 0.0 0.0 0.19054836 0.0 0.27144662 0.0 0.0 
glenn 0.17569488 0.42535707 0.3525279 0.0 0.0 0.2931273 0.0 0.25429422 0.0 0.0 
law 0.08922893 0.32260033 0.21422136 0.0 0.0 0.23458225 0.0 0.29179594 0.0 0.0 
robert 0.123757005 0.40094763 0.2582852 0.0 0.0 0.28906822 0.0 0.25426865 0.0 0.0 
huge 0.15601343 0.41316158 0.3028858 0.0 0.0 0.3186328 0.0 0.279677 0.0 0.0 
tennis 0.21418625 0.46738747 0.3939313 0.0 0.0 0.3470403 0.0 0.2273922 0.0 0.0 
sir 0.23067987 0.47785228 0.38214406 0.0 0.0 0.35005608 0.0 0.22784796 0.0 0.0 
rather 0.19271591 0.47410455 0.36004338 0.0 0.0 0.33324945 0.0 0.23667794 0.0 0.0 
beyond 0.0901916 0.36553118 0.22399884 0.0 0.0 0.2530048 0.0 0.2398156 0.0 0.0 
began 0.15536556 0.3834394 0.28789786 0.0 0.0 0.2659405 0.0 0.26450276 0.0 0.0 
rafter 0.09119585 0.38581756 0.23115873 0.0 0.0 0.2495664 0.0 0.2770328 0.0 0.0 
cost 0.07273227 0.37157446 0.19491345 0.0 0.0 0.27344763 0.0 0.2706799 0.0 0.0 
airlines 0.097901285 0.38240415 0.23423031 0.0 0.0 0.26914343 0.0 0.26332253 0.0 0.0 
expressed 0.0787451 0.40747738 0.23356444 0.0 0.0 0.28856513 0.0 0.25121897 0.0 0.0 
tour 0.13562268 0.32627147 0.2490409 0.0 0.0 0.21689951 0.0 0.28387666 0.0 0.0 
caused 0.1804372 0.42955637 0.31696728 0.0 0.0 0.31389463 0.0 0.22724149 0.0 0.0 
powell 0.0 0.20281525 0.0039468408 0.0 0.0 0.117719494 0.0 0.2665571 0.0 0.0 
less 0.07281768 0.39127514 0.20327401 0.0 0.0 0.25567827 0.0 0.24201381 0.0 0.0 
virus 0.18110797 0.42263064 0.34001103 0.0 0.0 0.32195637 0.0 0.23357642 0.0 0.0 
beginning 0.0067910254 0.30268168 0.15760142 0.0 0.0 0.20873362 0.0 0.23248103 0.0 0.0 
friday 0.090574265 0.39876968 0.24163097 0.0 0.0 0.28920355 0.0 0.25649345 0.0 0.0 
facility 0.16194808 0.47752878 0.3358135 0.0 0.0 0.34092113 0.0 0.21838823 0.0 0.0 
struck 0.13663152 0.39561146 0.2797471 0.0 0.0 0.28495365 0.0 0.28254646 0.0 0.0 
period 0.14626685 0.39579484 0.2892504 0.0 0.0 0.2867964 0.0 0.25449824 0.0 0.0 
nauru 0.06340966 0.3099847 0.19511259 0.0 0.0 0.21481395 0.0 0.270638 0.0 0.0 
wage 0.23844868 0.5024258 0.44659665 0.0 0.0 0.3752636 0.0 0.24055466 0.0 0.0 
prevent 0.08184612 0.3924983 0.24577785 0.0 0.0 0.28337348 0.0 0.26331076 0.0 0.0 
car 0.042921275 0.31276768 0.1453003 0.0 0.0 0.20239401 0.0 0.23591349 0.0 0.0 
ever 0.046658635 0.3022845 0.1678065 0.0 0.0 0.19132578 0.0 0.25453007 0.0 0.0 
crowd 0.1621097 0.44636354 0.29225346 0.0 0.0 0.3317271 0.0 0.2506271 0.0 0.0 
difficult 0.014505744 0.2753944 0.085691035 0.0 0.0 0.18674329 0.0 0.2995648 0.0 0.0 
though 0.21652246 0.44686285 0.3699921 0.0 0.0 0.31326142 0.0 0.22211504 0.0 0.0 
confidence 0.04906404 0.32949057 0.16502199 0.0 0.0 0.20861286 0.0 0.27149117 0.0 0.0 
having 0.21158051 0.42985556 0.35508236 0.0 0.0 0.31175116 0.0 0.25840855 0.0 0.0 
musharraf 0.0060587823 0.2804753 0.105380386 0.0 0.0 0.18522567 0.0 0.23896769 0.0 0.0 
gives 0.083627045 0.37572932 0.23486757 0.0 0.0 0.2555398 0.0 0.24422756 0.0 0.0 
media 0.046705544 0.31034034 0.19541663 0.0 0.0 0.19125366 0.0 0.24596311 0.0 0.0 
advice 0.08492631 0.29877442 0.20146114 0.0 0.0 0.20641094 0.0 0.27894795 0.0 0.0 
bomb 0.05064428 0.3175045 0.197476 0.0 0.0 0.21081552 0.0 0.2711897 0.0 0.0 
negotiations 0.17898273 0.4214764 0.34557852 0.0 0.0 0.3107764 0.0 0.24455927 0.0 0.0 
fact 0.09060347 0.37415728 0.22116676 0.0 0.0 0.22701609 0.0 0.2504034 0.0 0.0 
ll 0.0 0.22442606 0.04705149 0.0 0.0 0.1316782 0.0 0.27958182 0.0 0.0 
highway 0.13502151 0.47685263 0.3310288 0.0 0.0 0.33417216 0.0 0.21221727 0.0 0.0 
hobart 0.07677868 0.37847814 0.19498861 0.0 0.0 0.25130805 0.0 0.243033 0.0 0.0 
arrived 0.056862146 0.3880818 0.24605101 0.0 0.0 0.27417555 0.0 0.25624967 0.0 0.0 
suharto 0.13514873 0.38281885 0.28541633 0.0 0.0 0.26914272 0.0 0.24816987 0.0 0.0 
pacific 0.20612526 0.43986633 0.37378803 0.0 0.0 0.33121154 0.0 0.22135629 0.0 0.0 
business 0.045752883 0.312685 0.18468913 0.0 0.0 0.20484656 0.0 0.2365052 0.0 0.0 
expect 0.13940835 0.41272676 0.2917454 0.0 0.0 0.28682044 0.0 0.22917056 0.0 0.0 
attorney 0.113196194 0.41115552 0.25968137 0.0 0.0 0.2928001 0.0 0.27162266 0.0 0.0 
intelligence 0.14928517 0.3983703 0.31214288 0.0 0.0 0.3024997 0.0 0.26101658 0.0 0.0 
deputy 0.20816621 0.42604944 0.34819338 0.0 0.0 0.30118793 0.0 0.27284396 0.0 0.0 
blake 0.044723243 0.27160668 0.16553363 0.0 0.0 0.18332145 0.0 0.27567053 0.0 0.0 
involved 0.09610799 0.392469 0.22770184 0.0 0.0 0.25853756 0.0 0.24201798 0.0 0.0 
total 0.0 0.25715637 0.090411276 0.0 0.0 0.14269245 0.0 0.22510503 0.0 0.0 
runs 0.043394804 0.3067896 0.17367622 0.0 0.0 0.1987262 0.0 0.2739821 0.0 0.0 
islands 0.17764527 0.44001102 0.3276709 0.0 0.0 0.31024155 0.0 0.2313727 0.0 0.0 
elected 0.021714926 0.26088774 0.12952459 0.0 0.0 0.17194828 0.0 0.24142623 0.0 0.0 
commissioner 0.22277129 0.500136 0.4046856 0.0 0.0 0.3432346 0.0 0.21774337 0.0 0.0 
step 0.11992064 0.37106216 0.2607126 0.0 0.0 0.23125431 0.0 0.21459669 0.0 0.0 
strike 0.014675289 0.2745405 0.13213637 0.0 0.0 0.1823149 0.0 0.24663377 0.0 0.0 
supporters 0.032373548 0.24898337 0.09498957 0.0 0.0 0.16310927 0.0 0.2611696 0.0 0.0 
away 0.17872256 0.42221615 0.32613888 0.0 0.0 0.32003748 0.0 0.26418927 0.0 0.0 
worst 0.1146813 0.36949646 0.22179666 0.0 0.0 0.23488915 0.0 0.22693163 0.0 0.0 
ses 0.17664307 0.42704096 0.32351765 0.0 0.0 0.30441833 0.0 0.24250081 0.0 0.0 
afternoon 0.09379396 0.36421853 0.21108717 0.0 0.0 0.23176906 0.0 0.28111854 0.0 0.0 
market 0.12974414 0.37453756 0.259275 0.0 0.0 0.23992896 0.0 0.20821658 0.0 0.0 
allan 0.121350765 0.4202415 0.2621694 0.0 0.0 0.2863522 0.0 0.23026387 0.0 0.0 
recession 0.010781944 0.25317964 0.12258619 0.0 0.0 0.1789316 0.0 0.25468373 0.0 0.0 
big 0.18987843 0.43840513 0.36284617 0.0 0.0 0.33320355 0.0 0.24075943 0.0 0.0 
gave 0.0055957735 0.22670043 0.0510011 0.0 0.0 0.1381208 0.0 0.2890675 0.0 0.0 
followed 0.1480096 0.38948244 0.2645721 0.0 0.0 0.2969395 0.0 0.2613095 0.0 0.0 
commanders 0.031509936 0.33632445 0.17783806 0.0 0.0 0.24070516 0.0 0.24749666 0.0 0.0 
appeared 0.009923458 0.25937465 0.10631108 0.0 0.0 0.14846063 0.0 0.2561578 0.0 0.0 
field 0.031559795 0.34112284 0.1786471 0.0 0.0 0.23244181 0.0 0.27248898 0.0 0.0 
ensure 0.15044442 0.43312755 0.29178432 0.0 0.0 0.30163255 0.0 0.24717146 0.0 0.0 
whose 0.23305863 0.5201187 0.43687788 0.0 0.0 0.36870092 0.0 0.19552593 0.0 0.0 
commander 0.15790936 0.43063796 0.30918005 0.0 0.0 0.2926342 0.0 0.2455706 0.0 0.0 
feel 0.0 0.17963979 0.0 0.0 0.0 0.076034166 0.0 0.27098155 0.0 0.0 
martin 0.20102784 0.4712883 0.35516086 0.0 0.0 0.35054493 0.0 0.22115172 0.0 0.0 
anglican 0.1855818 0.48273036 0.3659266 0.0 0.0 0.3311648 0.0 0.20231032 0.0 0.0 
giving 0.17501849 0.47015235 0.3405654 0.0 0.0 0.3443692 0.0 0.2331605 0.0 0.0 
speaking 0.034160316 0.3210738 0.14678472 0.0 0.0 0.21203125 0.0 0.26973698 0.0 0.0 
anthony 0.16358161 0.4020949 0.28493342 0.0 0.0 0.28556943 0.0 0.24165937 0.0 0.0 
americans 0.0 0.14190161 0.0 0.0 0.0 0.0555968 0.0 0.3288732 0.0 0.0 
threat 0.106586546 0.3830656 0.2379953 0.0 0.0 0.2394925 0.0 0.23748866 0.0 0.0 
entered 0.0 0.23019037 0.09806779 0.0 0.0 0.14623821 0.0 0.2447607 0.0 0.0 
terror 0.045360804 0.31301764 0.1826142 0.0 0.0 0.21680793 0.0 0.2802517 0.0 0.0 
main 0.16406918 0.37656447 0.28726575 0.0 0.0 0.26564088 0.0 0.26634544 0.0 0.0 
lost 0.029628366 0.28776526 0.15651524 0.0 0.0 0.2033206 0.0 0.26720873 0.0 0.0 
criticism 0.053545862 0.35880196 0.18602252 0.0 0.0 0.22304967 0.0 0.2598945 0.0 0.0 
tasmania 0.035462618 0.30180407 0.15615106 0.0 0.0 0.22881988 0.0 0.27812207 0.0 0.0 
together 0.09478298 0.37728772 0.22932267 0.0 0.0 0.26408976 0.0 0.26405045 0.0 0.0 
smoke 0.031463206 0.28988808 0.11950639 0.0 0.0 0.1842657 0.0 0.259912 0.0 0.0 
son 0.110530496 0.38137004 0.2532321 0.0 0.0 0.24689755 0.0 0.2178658 0.0 0.0 
crisis 0.116971344 0.400006 0.27851567 0.0 0.0 0.26766524 0.0 0.23388323 0.0 0.0 
played 0.1157482 0.36211166 0.22821078 0.0 0.0 0.244358 0.0 0.28874618 0.0 0.0 
level 0.07451701 0.32676366 0.18492457 0.0 0.0 0.20746085 0.0 0.23264937 0.0 0.0 
themselves 0.052553445 0.31128585 0.1700514 0.0 0.0 0.17068002 0.0 0.23764138 0.0 0.0 
massive 0.15388596 0.4622794 0.36566803 0.0 0.0 0.34716776 0.0 0.2362797 0.0 0.0 
significant 0.123562396 0.38123035 0.22101381 0.0 0.0 0.24799949 0.0 0.23761924 0.0 0.0 
base 0.082633615 0.29740998 0.1869734 0.0 0.0 0.19221103 0.0 0.25313216 0.0 0.0 
never 0.039747477 0.32620192 0.14549926 0.0 0.0 0.19997036 0.0 0.24032432 0.0 0.0 
assistance 0.06811312 0.30869475 0.20604005 0.0 0.0 0.20987251 0.0 0.24534452 0.0 0.0 
round 0.07567245 0.35036442 0.20014325 0.0 0.0 0.23239818 0.0 0.24082465 0.0 0.0 
chairman 0.14894086 0.3849072 0.2695888 0.0 0.0 0.2937454 0.0 0.27422076 0.0 0.0 
decide 0.109690964 0.3979064 0.2916756 0.0 0.0 0.28026694 0.0 0.21944001 0.0 0.0 
front 0.067539215 0.35078084 0.19991013 0.0 0.0 0.22189063 0.0 0.25215337 0.0 0.0 
zimbabwe 0.12399587 0.38406736 0.285813 0.0 0.0 0.26711774 0.0 0.23941836 0.0 0.0 
nearly 0.08353591 0.35252148 0.2152237 0.0 0.0 0.23612648 0.0 0.25006238 0.0 0.0 
game 0.05517006 0.34316227 0.16105035 0.0 0.0 0.2093972 0.0 0.236858 0.0 0.0 
ballot 0.06527248 0.36491466 0.19955364 0.0 0.0 0.24830955 0.0 0.24547032 0.0 0.0 
conflict 0.11729467 0.36516532 0.2293764 0.0 0.0 0.2517855 0.0 0.23265754 0.0 0.0 
crean 0.19425905 0.47887096 0.38396367 0.0 0.0 0.34007636 0.0 0.23236023 0.0 0.0 
tragedy 0.023152173 0.28711945 0.13801989 0.0 0.0 0.1897915 0.0 0.25002313 0.0 0.0 
labour 0.02946499 0.30312303 0.13621536 0.0 0.0 0.22115546 0.0 0.26963148 0.0 0.0 
chance 0.096459866 0.37964344 0.19432122 0.0 0.0 0.24257788 0.0 0.26374364 0.0 0.0 
sort 0.0 0.20635019 0.0 0.0 0.0 0.10623973 0.0 0.28378516 0.0 0.0 
longer 0.09849787 0.3083783 0.22417381 0.0 0.0 0.19019255 0.0 0.2557219 0.0 0.0 
trip 0.051221848 0.3381301 0.20970389 0.0 0.0 0.21927351 0.0 0.23054865 0.0 0.0 
geoff 0.24168503 0.51204586 0.41989085 0.0 0.0 0.35717848 0.0 0.23015442 0.0 0.0 
changed 0.090073854 0.37445486 0.26613632 0.0 0.0 0.26492307 0.0 0.21345793 0.0 0.0 
france 0.009866238 0.34453505 0.12058765 0.0 0.0 0.22176874 0.0 0.23133007 0.0 0.0 
explosives 0.048476905 0.27396986 0.14760241 0.0 0.0 0.18233421 0.0 0.30383116 0.0 0.0 
employees 0.07872486 0.33738416 0.21352339 0.0 0.0 0.24451122 0.0 0.2692025 0.0 0.0 
protect 0.14514229 0.44522026 0.30910978 0.0 0.0 0.3032976 0.0 0.24767242 0.0 0.0 
daryl 0.092151195 0.3902125 0.24022332 0.0 0.0 0.28107026 0.0 0.27029836 0.0 0.0 
muslim 0.13134289 0.3997681 0.25587267 0.0 0.0 0.25835493 0.0 0.20016566 0.0 0.0 
yes 0.09992871 0.39727417 0.22780469 0.0 0.0 0.2570064 0.0 0.18591991 0.0 0.0 
survey 0.06982982 0.38002723 0.2154015 0.0 0.0 0.25764313 0.0 0.23897806 0.0 0.0 
conference 0.13425976 0.3781097 0.2536607 0.0 0.0 0.25714642 0.0 0.26396817 0.0 0.0 
ambush 0.11274451 0.37329626 0.2701095 0.0 0.0 0.23316944 0.0 0.23767821 0.0 0.0 
heavy 0.079048276 0.30831856 0.19704077 0.0 0.0 0.1883775 0.0 0.25554073 0.0 0.0 
powers 0.11901826 0.3922172 0.25145623 0.0 0.0 0.2564038 0.0 0.2586672 0.0 0.0 
potential 0.041329294 0.3126905 0.17483827 0.0 0.0 0.1781781 0.0 0.21737207 0.0 0.0 
finished 0.0 0.165655 0.005285546 0.0 0.0 0.066812664 0.0 0.25472522 0.0 0.0 
vote 0.001345098 0.21378799 0.07574564 0.0 0.0 0.13347334 0.0 0.28791156 0.0 0.0 
population 0.14580598 0.43790933 0.33087984 0.0 0.0 0.3092906 0.0 0.22666468 0.0 0.0 
endeavour 0.008521855 0.32550454 0.1253269 0.0 0.0 0.21686614 0.0 0.24603614 0.0 0.0 
russian 0.04103464 0.30022284 0.16227803 0.0 0.0 0.17960677 0.0 0.21302839 0.0 0.0 
brett 0.23507845 0.4839037 0.42007378 0.0 0.0 0.38170305 0.0 0.24864514 0.0 0.0 
placed 0.12376511 0.38874733 0.271574 0.0 0.0 0.2970101 0.0 0.27630273 0.0 0.0 
storms 0.15120956 0.4046858 0.30037346 0.0 0.0 0.27040076 0.0 0.24291989 0.0 0.0 
study 0.16939273 0.49400535 0.36447152 0.0 0.0 0.35862392 0.0 0.20940906 0.0 0.0 
reid 0.0 0.2356706 0.008174807 0.0 0.0 0.12859008 0.0 0.26844296 0.0 0.0 
organisations 0.042404413 0.30580628 0.14393744 0.0 0.0 0.19765294 0.0 0.2681983 0.0 0.0 
denied 0.11936438 0.3702204 0.27366385 0.0 0.0 0.28205237 0.0 0.27382883 0.0 0.0 
bring 0.10164663 0.31572202 0.17195866 0.0 0.0 0.21987948 0.0 0.26677838 0.0 0.0 
places 0.043735027 0.34622502 0.17087927 0.0 0.0 0.24030319 0.0 0.24466121 0.0 0.0 
entitlements 0.095805526 0.4005546 0.23445338 0.0 0.0 0.2611728 0.0 0.23167226 0.0 0.0 
fast 0.25001276 0.47869 0.394932 0.0 0.0 0.35906363 0.0 0.22986661 0.0 0.0 
indonesia 0.10274476 0.38498816 0.22343764 0.0 0.0 0.28280285 0.0 0.24546257 0.0 0.0 
jacques 0.16483605 0.41777757 0.3455923 0.0 0.0 0.28748184 0.0 0.24434894 0.0 0.0 
helicopter 0.14035451 0.44401655 0.35565814 0.0 0.0 0.32864547 0.0 0.23518106 0.0 0.0 
saturday 0.041498482 0.31484574 0.12285733 0.0 0.0 0.20999938 0.0 0.26250523 0.0 0.0 
hearings 0.062051296 0.3634564 0.19644013 0.0 0.0 0.2598317 0.0 0.2539905 0.0 0.0 
plan 0.0052246153 0.23694107 0.09630671 0.0 0.0 0.1534527 0.0 0.2655116 0.0 0.0 
pakistani 0.12241614 0.4248572 0.26752183 0.0 0.0 0.30316287 0.0 0.26520568 0.0 0.0 
quarter 0.045877844 0.3450933 0.19780645 0.0 0.0 0.25805113 0.0 0.25289357 0.0 0.0 
costs 0.08078027 0.39820713 0.23162043 0.0 0.0 0.25619656 0.0 0.25265855 0.0 0.0 
current 0.060097545 0.32892612 0.17075899 0.0 0.0 0.19870573 0.0 0.24856424 0.0 0.0 
boxing 0.023246467 0.30359873 0.13517925 0.0 0.0 0.21521941 0.0 0.2397865 0.0 0.0 
debt 0.011690944 0.2973438 0.14087516 0.0 0.0 0.19262964 0.0 0.2430791 0.0 0.0 
lockett 0.08545181 0.35326976 0.21925464 0.0 0.0 0.24180019 0.0 0.2493856 0.0 0.0 
jenin 0.097415954 0.3648328 0.21836025 0.0 0.0 0.24589893 0.0 0.23898378 0.0 0.0 
macgill 0.13323045 0.41161317 0.3044015 0.0 0.0 0.29999492 0.0 0.2548264 0.0 0.0 
calling 0.067472816 0.3443724 0.18933266 0.0 0.0 0.22888029 0.0 0.25943035 0.0 0.0 
cannot 0.08917689 0.36610392 0.19881806 0.0 0.0 0.24055627 0.0 0.25875226 0.0 0.0 
complex 0.14310503 0.39457038 0.2657344 0.0 0.0 0.28035387 0.0 0.24629867 0.0 0.0 
cars 0.07615656 0.33894315 0.21444148 0.0 0.0 0.24676776 0.0 0.25406167 0.0 0.0 
absolutely 0.033711016 0.27127668 0.13816833 0.0 0.0 0.18625721 0.0 0.25531828 0.0 0.0 
continues 0.025315017 0.26587743 0.11561367 0.0 0.0 0.15992859 0.0 0.3150076 0.0 0.0 
gun 0.0 0.19412649 0.043089747 0.0 0.0 0.10595281 0.0 0.27225494 0.0 0.0 
winner 0.09832138 0.40425816 0.22072908 0.0 0.0 0.26708415 0.0 0.24321984 0.0 0.0 
ice 0.083482 0.32087073 0.18402204 0.0 0.0 0.20532393 0.0 0.25949213 0.0 0.0 
direct 0.066236466 0.31363347 0.17463541 0.0 0.0 0.1985127 0.0 0.27184573 0.0 0.0 
deadly 0.0 0.3026357 0.09201327 0.0 0.0 0.17960891 0.0 0.25668412 0.0 0.0 
gas 0.091701925 0.3830969 0.25343475 0.0 0.0 0.26604396 0.0 0.21910848 0.0 0.0 
moved 0.0 0.1937167 0.0 0.0 0.0 0.12436754 0.0 0.30615884 0.0 0.0 
claim 0.02979061 0.26331192 0.13461116 0.0 0.0 0.1719439 0.0 0.27536997 0.0 0.0 
payment 0.0 0.23910418 0.03592384 0.0 0.0 0.15885508 0.0 0.3019094 0.0 0.0 
receive 0.029361367 0.2843279 0.10520458 0.0 0.0 0.17195058 0.0 0.2922052 0.0 0.0 
fired 0.0417715 0.2900642 0.14635417 0.0 0.0 0.17304587 0.0 0.28582606 0.0 0.0 
nation 0.0822888 0.3586528 0.2018866 0.0 0.0 0.2456542 0.0 0.26757306 0.0 0.0 
accept 0.06358594 0.29030964 0.17900553 0.0 0.0 0.19597676 0.0 0.283904 0.0 0.0 
carry 0.0 0.2951208 0.12003887 0.0 0.0 0.19384652 0.0 0.2531075 0.0 0.0 
greater 0.05604008 0.34544203 0.20188966 0.0 0.0 0.24852204 0.0 0.26883507 0.0 0.0 
professor 0.019818574 0.29735002 0.12091383 0.0 0.0 0.19076207 0.0 0.2896101 0.0 0.0 
forecast 0.0072178543 0.2460773 0.14075762 0.0 0.0 0.16086626 0.0 0.2239304 0.0 0.0 
election 0.0 0.278352 0.08682272 0.0 0.0 0.15561834 0.0 0.27947676 0.0 0.0 
record 0.023482382 0.2660123 0.10629386 0.0 0.0 0.15280345 0.0 0.26474583 0.0 0.0 
provide 0.0 0.28543416 0.06260702 0.0 0.0 0.16741502 0.0 0.23571399 0.0 0.0 
global 0.17658958 0.4278943 0.35016856 0.0 0.0 0.29395515 0.0 0.23071656 0.0 0.0 
richard 0.0 0.22687912 0.017617792 0.0 0.0 0.15206388 0.0 0.32080504 0.0 0.0 
central 0.026393116 0.29257867 0.16042745 0.0 0.0 0.17875263 0.0 0.2563114 0.0 0.0 
vaughan 0.054462463 0.35578722 0.19849288 0.0 0.0 0.24538624 0.0 0.23952752 0.0 0.0 
share 0.007487178 0.30562773 0.101857424 0.0 0.0 0.17644775 0.0 0.24742614 0.0 0.0 
problems 0.026096433 0.36025417 0.15888381 0.0 0.0 0.24466804 0.0 0.26258567 0.0 0.0 
continued 0.11150831 0.3722125 0.24074498 0.0 0.0 0.26345903 0.0 0.25658417 0.0 0.0 
confident 0.0 0.21965961 0.03638178 0.0 0.0 0.114269026 0.0 0.26062328 0.0 0.0 
private 0.08331895 0.3644568 0.20615819 0.0 0.0 0.24118257 0.0 0.24202986 0.0 0.0 
tape 0.0669173 0.32754108 0.20033547 0.0 0.0 0.21692345 0.0 0.23656636 0.0 0.0 
rival 0.023963451 0.31380263 0.11632845 0.0 0.0 0.19398987 0.0 0.25370505 0.0 0.0 
grant 0.0 0.33845627 0.12457773 0.0 0.0 0.21595964 0.0 0.20686084 0.0 0.0 
fleeing 0.043616176 0.32112783 0.17180201 0.0 0.0 0.23083332 0.0 0.2538684 0.0 0.0 
led 0.0 0.29221174 0.07489088 0.0 0.0 0.17891997 0.0 0.2880588 0.0 0.0 
small 0.0 0.24579349 0.108226955 0.0 0.0 0.15553 0.0 0.2918306 0.0 0.0 
ruled 0.018967807 0.28126684 0.1245836 0.0 0.0 0.19203424 0.0 0.26806682 0.0 0.0 
dozens 0.0 0.27588284 0.07753754 0.0 0.0 0.14708436 0.0 0.26127455 0.0 0.0 
activity 0.038330257 0.35002366 0.18335068 0.0 0.0 0.22272652 0.0 0.2529949 0.0 0.0 
ramallah 0.0 0.27729642 0.10968912 0.0 0.0 0.17338914 0.0 0.2724364 0.0 0.0 
everything 0.005412668 0.2947258 0.095826685 0.0 0.0 0.1742037 0.0 0.2544109 0.0 0.0 
severe 0.10423666 0.39309487 0.24244341 0.0 0.0 0.239432 0.0 0.19640139 0.0 0.0 
rain 0.0 0.26450503 0.08303493 0.0 0.0 0.14947665 0.0 0.24810745 0.0 0.0 
mean 0.0 0.27616823 0.06998095 0.0 0.0 0.18651071 0.0 0.28359604 0.0 0.0 
french 0.0022101402 0.26957723 0.10931027 0.0 0.0 0.17988107 0.0 0.27015173 0.0 0.0 
whole 0.0 0.20936562 0.014771253 0.0 0.0 0.1350939 0.0 0.2810921 0.0 0.0 
injuries 0.0 0.25142747 0.056896508 0.0 0.0 0.15284842 0.0 0.26557085 0.0 0.0 
tony 0.013125211 0.31277156 0.14665511 0.0 0.0 0.19120362 0.0 0.23409054 0.0 0.0 
overall 0.13345045 0.46708778 0.30329248 0.0 0.0 0.33601713 0.0 0.21648875 0.0 0.0 
statistics 0.07179913 0.26361704 0.14340994 0.0 0.0 0.17680115 0.0 0.25078937 0.0 0.0 
secret 0.045714647 0.32152098 0.17819804 0.0 0.0 0.22234309 0.0 0.2802022 0.0 0.0 
disaster 0.08701646 0.4125887 0.23777997 0.0 0.0 0.29816875 0.0 0.26119453 0.0 0.0 
coalition 0.037249744 0.33010986 0.1369715 0.0 0.0 0.20019773 0.0 0.26372927 0.0 0.0 
fellow 0.060341626 0.34123206 0.16264078 0.0 0.0 0.23084182 0.0 0.26703477 0.0 0.0 
sign 0.0 0.2693084 0.07704574 0.0 0.0 0.15767339 0.0 0.23592043 0.0 0.0 
starting 0.027020335 0.29253262 0.14714932 0.0 0.0 0.17773297 0.0 0.2852833 0.0 0.0 
gillespie 0.2136808 0.50508213 0.36591253 0.0 0.0 0.3427643 0.0 0.22545932 0.0 0.0 
signed 0.04155612 0.29804063 0.15673831 0.0 0.0 0.1897218 0.0 0.25746283 0.0 0.0 
environment 0.0 0.22658329 0.06552151 0.0 0.0 0.15877038 0.0 0.29252696 0.0 0.0 
treatment 0.01887536 0.26055372 0.097174704 0.0 0.0 0.15678391 0.0 0.2542391 0.0 0.0 
research 0.03896427 0.31242952 0.16777241 0.0 0.0 0.1980367 0.0 0.25640064 0.0 0.0 
doubles 0.049322993 0.30370948 0.14927337 0.0 0.0 0.17892122 0.0 0.24058312 0.0 0.0 
damaged 0.055004 0.38991922 0.23325661 0.0 0.0 0.2664974 0.0 0.2251986 0.0 0.0 
closed 0.0 0.23785745 0.06651294 0.0 0.0 0.14364177 0.0 0.29335815 0.0 0.0 
coming 0.0 0.19123504 0.009061664 0.0 0.0 0.1214577 0.0 0.29749247 0.0 0.0 
hayden 0.10243359 0.3608391 0.21882981 0.0 0.0 0.24346924 0.0 0.25805235 0.0 0.0 
technology 0.0 0.21302499 0.047026217 0.0 0.0 0.11236497 0.0 0.2833615 0.0 0.0 
mountain 0.12758914 0.37612218 0.26919088 0.0 0.0 0.25579995 0.0 0.25548935 0.0 0.0 
interlaken 0.14877549 0.3846992 0.31255457 0.0 0.0 0.25977275 0.0 0.23685788 0.0 0.0 
recorded 0.035577834 0.34556 0.15987217 0.0 0.0 0.2199991 0.0 0.26437247 0.0 0.0 
rest 0.0 0.25133094 0.05165547 0.0 0.0 0.16003993 0.0 0.2797377 0.0 0.0 
resolution 0.052890122 0.33326402 0.19773003 0.0 0.0 0.22039405 0.0 0.24943991 0.0 0.0 
cities 0.035529435 0.30896863 0.12613922 0.0 0.0 0.1912128 0.0 0.263916 0.0 0.0 
insurance 0.13792655 0.39297196 0.29388037 0.0 0.0 0.2475794 0.0 0.26590085 0.0 0.0 
rumsfeld 0.07272637 0.364823 0.19537288 0.0 0.0 0.23243928 0.0 0.26141906 0.0 0.0 
condition 0.0 0.28205293 0.10206172 0.0 0.0 0.17887968 0.0 0.2575567 0.0 0.0 
pilot 0.12400639 0.41159227 0.24444318 0.0 0.0 0.2547655 0.0 0.250602 0.0 0.0 
low 0.039173663 0.30600718 0.15241104 0.0 0.0 0.2004607 0.0 0.24094072 0.0 0.0 
concern 0.04193157 0.34450218 0.14430317 0.0 0.0 0.21347353 0.0 0.2587762 0.0 0.0 
affected 0.10321063 0.3440104 0.22470841 0.0 0.0 0.25924048 0.0 0.28092468 0.0 0.0 
simon 0.14396557 0.42316148 0.33959708 0.0 0.0 0.3078434 0.0 0.24974716 0.0 0.0 
tribal 0.069466025 0.32555944 0.19463322 0.0 0.0 0.22774664 0.0 0.24044946 0.0 0.0 
representation 0.09607321 0.35906193 0.24438483 0.0 0.0 0.22735935 0.0 0.23279436 0.0 0.0 
sides 0.0 0.25880367 0.09295398 0.0 0.0 0.1543741 0.0 0.2562962 0.0 0.0 
review 0.05969879 0.29860127 0.16898397 0.0 0.0 0.18538776 0.0 0.25554088 0.0 0.0 
paid 0.0067639947 0.31280485 0.13587344 0.0 0.0 0.1799292 0.0 0.22087549 0.0 0.0 
verdict 0.0 0.20903885 0.056916356 0.0 0.0 0.11482533 0.0 0.24988204 0.0 0.0 
hope 0.0 0.23430333 0.08665711 0.0 0.0 0.14327773 0.0 0.27779016 0.0 0.0 
hotel 0.045729935 0.26123923 0.11537483 0.0 0.0 0.15925667 0.0 0.2762832 0.0 0.0 
steve 0.1709066 0.43195042 0.34587023 0.0 0.0 0.33289692 0.0 0.25983548 0.0 0.0 
problem 0.09083563 0.35799375 0.17195442 0.0 0.0 0.23563278 0.0 0.24102303 0.0 0.0 
needed 0.0 0.24003011 0.040695608 0.0 0.0 0.14609191 0.0 0.25481245 0.0 0.0 
almost 0.014318198 0.29865435 0.1675668 0.0 0.0 0.224361 0.0 0.26656136 0.0 0.0 
companies 0.0 0.29137602 0.10438952 0.0 0.0 0.17645475 0.0 0.2751461 0.0 0.0 
hold 0.0 0.24946742 0.07496992 0.0 0.0 0.13857388 0.0 0.269664 0.0 0.0 
stopped 0.046375304 0.31119755 0.15414125 0.0 0.0 0.20321539 0.0 0.29111633 0.0 0.0 
efforts 0.0 0.23219526 0.113676965 0.0 0.0 0.16575691 0.0 0.25769487 0.0 0.0 
twice 0.06309992 0.30247125 0.16639057 0.0 0.0 0.20306334 0.0 0.26188448 0.0 0.0 
receiving 0.044664383 0.28982815 0.15751758 0.0 0.0 0.19816679 0.0 0.24609537 0.0 0.0 
flames 0.06423706 0.3672511 0.18621594 0.0 0.0 0.24855775 0.0 0.24353275 0.0 0.0 
little 0.0 0.26267368 0.119386286 0.0 0.0 0.17042658 0.0 0.26407123 0.0 0.0 
bonn 0.065499365 0.28683138 0.18303221 0.0 0.0 0.19135812 0.0 0.24243954 0.0 0.0 
bomber 0.115348876 0.44015273 0.26270828 0.0 0.0 0.3047029 0.0 0.25260654 0.0 0.0 
land 0.0 0.19257797 0.0 0.0 0.0 0.084800474 0.0 0.27575138 0.0 0.0 
civil 0.022124559 0.30661 0.1269756 0.0 0.0 0.18989173 0.0 0.25475758 0.0 0.0 
shuttle 0.077696025 0.32841557 0.1751365 0.0 0.0 0.21014717 0.0 0.2777982 0.0 0.0 
battle 0.045971513 0.343841 0.17307714 0.0 0.0 0.21519196 0.0 0.26501894 0.0 0.0 
proposals 0.0641408 0.3451696 0.22596169 0.0 0.0 0.22808403 0.0 0.25272655 0.0 0.0 
construction 0.12212181 0.4083049 0.2680947 0.0 0.0 0.30444774 0.0 0.2536108 0.0 0.0 
anyone 0.037143588 0.3426592 0.1476196 0.0 0.0 0.2240442 0.0 0.28234828 0.0 0.0 
hopes 0.0 0.26876092 0.108930856 0.0 0.0 0.17639264 0.0 0.29356453 0.0 0.0 
suffered 0.0 0.27483076 0.10886064 0.0 0.0 0.15098637 0.0 0.2620356 0.0 0.0 
data 0.02693957 0.28001952 0.13229951 0.0 0.0 0.15228248 0.0 0.25601155 0.0 0.0 
markets 0.043550998 0.344621 0.16793239 0.0 0.0 0.25151563 0.0 0.25938162 0.0 0.0 
table 0.0 0.14005321 0.0 0.0 0.0 0.07319338 0.0 0.2826907 0.0 0.0 
officer 0.123092085 0.44094563 0.2974181 0.0 0.0 0.3121445 0.0 0.24691193 0.0 0.0 
avoid 0.021359563 0.29185715 0.13691673 0.0 0.0 0.20056126 0.0 0.27249554 0.0 0.0 
victorian 0.110082954 0.35439962 0.22589496 0.0 0.0 0.27073067 0.0 0.26969615 0.0 0.0 
revealed 0.0 0.22154786 0.0660831 0.0 0.0 0.1555042 0.0 0.27037096 0.0 0.0 
created 0.0 0.19861414 0.042470068 0.0 0.0 0.11890336 0.0 0.2857849 0.0 0.0 
civilians 0.062686056 0.33922222 0.19739449 0.0 0.0 0.20735648 0.0 0.25830933 0.0 0.0 
levels 0.060489476 0.35967854 0.19511414 0.0 0.0 0.2431832 0.0 0.23801258 0.0 0.0 
asic 0.0249407 0.28884888 0.09368631 0.0 0.0 0.16816226 0.0 0.30570465 0.0 0.0 
spread 0.0 0.21153924 0.06698939 0.0 0.0 0.12900418 0.0 0.2439512 0.0 0.0 
nothing 0.0 0.20725606 0.0 0.0 0.0 0.10401597 0.0 0.26887447 0.0 0.0 
above 0.0 0.32114995 0.13611081 0.0 0.0 0.23178232 0.0 0.25382566 0.0 0.0 
assisting 0.115845144 0.3941714 0.24764615 0.0 0.0 0.26733026 0.0 0.2061339 0.0 0.0 
determined 0.0 0.12020949 0.0 0.0 0.0 0.04917907 0.0 0.2920266 0.0 0.0 
accompanied 0.013274074 0.3242201 0.14970651 0.0 0.0 0.21056977 0.0 0.2637095 0.0 0.0 
initial 0.0 0.26100492 0.073720604 0.0 0.0 0.15647945 0.0 0.23079273 0.0 0.0 
traditional 0.0 0.20537557 0.0 0.0 0.0 0.11015006 0.0 0.29722193 0.0 0.0 
krishna 0.09686589 0.3489319 0.20829618 0.0 0.0 0.2353625 0.0 0.22329949 0.0 0.0 
remains 0.024291337 0.33438012 0.16172588 0.0 0.0 0.22379336 0.0 0.26964852 0.0 0.0 
press 0.034944832 0.295945 0.15262353 0.0 0.0 0.22253487 0.0 0.25487298 0.0 0.0 
liquidation 0.17971295 0.43598455 0.3217239 0.0 0.0 0.31892252 0.0 0.21548592 0.0 0.0 
pollock 0.13736883 0.4219742 0.32510462 0.0 0.0 0.3122116 0.0 0.23482116 0.0 0.0 
why 0.008603305 0.21131767 0.0865027 0.0 0.0 0.11613067 0.0 0.28245074 0.0 0.0 
jason 0.18963075 0.43169305 0.3512464 0.0 0.0 0.32582864 0.0 0.27720362 0.0 0.0 
didn 0.08457631 0.3816892 0.21718174 0.0 0.0 0.23462805 0.0 0.21911743 0.0 0.0 
include 0.0 0.27655864 0.12653622 0.0 0.0 0.18404955 0.0 0.27788088 0.0 0.0 
showed 0.06507236 0.30476984 0.19210884 0.0 0.0 0.17924365 0.0 0.24055925 0.0 0.0 
institute 0.098805815 0.3092363 0.2118015 0.0 0.0 0.21149904 0.0 0.26721925 0.0 0.0 
hearing 0.056646436 0.26666582 0.16874236 0.0 0.0 0.18330556 0.0 0.24465534 0.0 0.0 
met 0.029574811 0.31989497 0.15761557 0.0 0.0 0.21151644 0.0 0.24681747 0.0 0.0 
warning 0.0 0.16806765 0.0063225627 0.0 0.0 0.0959438 0.0 0.27574345 0.0 0.0 
volunteers 0.010681093 0.3036229 0.1125052 0.0 0.0 0.194992 0.0 0.28243178 0.0 0.0 
operating 0.026319027 0.2934915 0.14021853 0.0 0.0 0.18795654 0.0 0.2639394 0.0 0.0 
questions 0.0 0.21021111 0.0 0.0 0.0 0.104660936 0.0 0.2819016 0.0 0.0 
europe 0.0 0.20229164 0.0 0.0 0.0 0.117637135 0.0 0.27231848 0.0 0.0 
giuliani 0.0 0.20474035 0.0 0.0 0.0 0.0999661 0.0 0.2611854 0.0 0.0 
rescue 0.0 0.27633289 0.062200665 0.0 0.0 0.16727448 0.0 0.25632057 0.0 0.0 
bit 0.0 0.23202257 0.06512451 0.0 0.0 0.11972136 0.0 0.24623041 0.0 0.0 
fall 0.03795576 0.35869327 0.19603685 0.0 0.0 0.23515654 0.0 0.22754979 0.0 0.0 
factory 0.04177189 0.31069857 0.14109105 0.0 0.0 0.18115798 0.0 0.27260566 0.0 0.0 
ceremony 0.0 0.21420427 0.04575911 0.0 0.0 0.12977624 0.0 0.26789495 0.0 0.0 
charge 0.0 0.23128521 0.05314812 0.0 0.0 0.13951719 0.0 0.25339255 0.0 0.0 
tough 0.0 0.24776323 0.057104945 0.0 0.0 0.15091679 0.0 0.2659851 0.0 0.0 
ponting 0.07100022 0.3547717 0.23459706 0.0 0.0 0.22949496 0.0 0.24114072 0.0 0.0 
roads 0.0 0.21032959 0.052660376 0.0 0.0 0.11483543 0.0 0.2596736 0.0 0.0 
helped 0.017687023 0.23797634 0.111011654 0.0 0.0 0.14301789 0.0 0.26753673 0.0 0.0 
michael 0.018708348 0.3417928 0.13527745 0.0 0.0 0.21647024 0.0 0.25399944 0.0 0.0 
debate 0.15482342 0.4434638 0.31915972 0.0 0.0 0.3089037 0.0 0.23965865 0.0 0.0 
stand 0.0 0.26126575 0.11311403 0.0 0.0 0.16388854 0.0 0.23157507 0.0 0.0 
operation 0.0 0.20443776 0.009095162 0.0 0.0 0.11487127 0.0 0.2828999 0.0 0.0 
playing 0.04442385 0.29088652 0.15000686 0.0 0.0 0.16600773 0.0 0.25125092 0.0 0.0 
ball 0.036163032 0.30506638 0.12750548 0.0 0.0 0.17749068 0.0 0.2815912 0.0 0.0 
nice 0.0 0.1472527 0.0 0.0 0.0 0.02818311 0.0 0.2811822 0.0 0.0 
fell 0.0 0.20646144 0.035363913 0.0 0.0 0.11984717 0.0 0.2984539 0.0 0.0 
non 0.043191433 0.29242438 0.1629624 0.0 0.0 0.20283392 0.0 0.2652569 0.0 0.0 
voted 0.0622392 0.27145067 0.14619574 0.0 0.0 0.15765893 0.0 0.2667663 0.0 0.0 
park 0.0 0.24376953 0.06470767 0.0 0.0 0.1521824 0.0 0.257018 0.0 0.0 
seriously 0.028511405 0.3119396 0.15139887 0.0 0.0 0.22960323 0.0 0.29097044 0.0 0.0 
enter 0.0 0.2537792 0.06479463 0.0 0.0 0.16977227 0.0 0.2805425 0.0 0.0 
coach 0.023969024 0.27842665 0.0951297 0.0 0.0 0.1680749 0.0 0.26791224 0.0 0.0 
ian 0.02124697 0.27432397 0.09873471 0.0 0.0 0.15060124 0.0 0.24661386 0.0 0.0 
vice 0.028368652 0.30267975 0.15371749 0.0 0.0 0.18474239 0.0 0.24690676 0.0 0.0 
solution 0.03620258 0.30251095 0.1493395 0.0 0.0 0.19784266 0.0 0.28824696 0.0 0.0 
keep 0.0 0.16825414 0.0 0.0 0.0 0.07912534 0.0 0.28058934 0.0 0.0 
threatened 0.05342272 0.32213178 0.19992962 0.0 0.0 0.21300438 0.0 0.20401281 0.0 0.0 
virgin 0.061856985 0.3109626 0.1848712 0.0 0.0 0.22743037 0.0 0.2809801 0.0 0.0 
resume 0.0 0.21074896 0.062315613 0.0 0.0 0.10991398 0.0 0.27486274 0.0 0.0 
structure 0.045534134 0.28453982 0.14149562 0.0 0.0 0.18545696 0.0 0.28086928 0.0 0.0 
mayor 0.008962989 0.3065715 0.15400898 0.0 0.0 0.19867608 0.0 0.24884954 0.0 0.0 
range 0.028793514 0.30333868 0.15260506 0.0 0.0 0.19055235 0.0 0.23493995 0.0 0.0 
built 0.0 0.1421428 0.0 0.0 0.0 0.050157644 0.0 0.2939631 0.0 0.0 
successful 0.0 0.24835968 0.042960644 0.0 0.0 0.16075361 0.0 0.2897405 0.0 0.0 
served 0.0 0.1635629 0.0 0.0 0.0 0.07966357 0.0 0.25927112 0.0 0.0 
completed 0.0 0.1757614 0.0 0.0 0.0 0.089173995 0.0 0.26097238 0.0 0.0 
mid 0.0 0.30122814 0.10834083 0.0 0.0 0.18976223 0.0 0.26796815 0.0 0.0 
qc 0.19638592 0.4582844 0.3689632 0.0 0.0 0.32429674 0.0 0.23712233 0.0 0.0 
illawarra 0.008847773 0.2748899 0.101905614 0.0 0.0 0.166466 0.0 0.22539273 0.0 0.0 
october 0.11568397 0.3707688 0.21276316 0.0 0.0 0.25837395 0.0 0.24906904 0.0 0.0 
guard 0.0 0.23471928 0.055267602 0.0 0.0 0.11810567 0.0 0.24038953 0.0 0.0 
wanted 0.042490363 0.30886295 0.16481987 0.0 0.0 0.21545911 0.0 0.27168384 0.0 0.0 
heading 0.021673203 0.31882712 0.15015724 0.0 0.0 0.19070017 0.0 0.23127891 0.0 0.0 
leg 0.14270201 0.39656052 0.30771914 0.0 0.0 0.29352215 0.0 0.2555701 0.0 0.0 
costello 0.0 0.271003 0.10345507 0.0 0.0 0.15618879 0.0 0.2788613 0.0 0.0 
pulled 0.0 0.2895139 0.07255572 0.0 0.0 0.17545852 0.0 0.26835734 0.0 0.0 
lower 0.10537231 0.37731433 0.24908769 0.0 0.0 0.26828098 0.0 0.26033407 0.0 0.0 
affairs 0.0 0.258905 0.085840225 0.0 0.0 0.1634886 0.0 0.24302828 0.0 0.0 
territories 0.0 0.13096106 0.0 0.0 0.0 0.037276372 0.0 0.28337857 0.0 0.0 
treated 0.0 0.20623344 0.04809311 0.0 0.0 0.11389498 0.0 0.26350856 0.0 0.0 
self 0.03333488 0.2624558 0.10835779 0.0 0.0 0.15018108 0.0 0.26901168 0.0 0.0 
related 0.0 0.24180046 0.056327283 0.0 0.0 0.16084418 0.0 0.27649906 0.0 0.0 
ray 0.17260349 0.43361577 0.3512757 0.0 0.0 0.29076028 0.0 0.2198596 0.0 0.0 
cease 0.09541625 0.34029946 0.1989224 0.0 0.0 0.24028558 0.0 0.29233187 0.0 0.0 
responsible 0.0 0.20152876 0.0 0.0 0.0 0.07631611 0.0 0.26920554 0.0 0.0 
resolve 0.067760825 0.32339078 0.203091 0.0 0.0 0.21228671 0.0 0.26494822 0.0 0.0 
heart 0.051021874 0.2893466 0.18648192 0.0 0.0 0.19306153 0.0 0.25256038 0.0 0.0 
heritage 0.0 0.2734298 0.072956055 0.0 0.0 0.15857232 0.0 0.30949745 0.0 0.0 
conducted 0.0 0.26025957 0.054873765 0.0 0.0 0.15091059 0.0 0.25603613 0.0 0.0 
attacked 0.0 0.24989918 0.055667967 0.0 0.0 0.15347266 0.0 0.26587218 0.0 0.0 
body 0.0 0.20902531 0.033747703 0.0 0.0 0.1367425 0.0 0.27878395 0.0 0.0 
elections 0.099345446 0.36984405 0.21918538 0.0 0.0 0.2584826 0.0 0.26159304 0.0 0.0 
seles 0.0033263564 0.28705668 0.13083464 0.0 0.0 0.18045875 0.0 0.23878258 0.0 0.0 
disappointed 0.0 0.28549019 0.087595195 0.0 0.0 0.19593787 0.0 0.2548716 0.0 0.0 
approach 0.0 0.21316896 0.05734718 0.0 0.0 0.13588122 0.0 0.2532432 0.0 0.0 
suspended 0.0 0.25164717 0.089083225 0.0 0.0 0.1513781 0.0 0.2507587 0.0 0.0 
reach 0.049399436 0.32906175 0.16951144 0.0 0.0 0.19781917 0.0 0.265315 0.0 0.0 
families 0.0 0.2606228 0.088204205 0.0 0.0 0.18744296 0.0 0.2956805 0.0 0.0 
august 0.024646819 0.32088557 0.1362226 0.0 0.0 0.2165738 0.0 0.26911366 0.0 0.0 
strategic 0.0713768 0.2997679 0.19217977 0.0 0.0 0.20655829 0.0 0.24234416 0.0 0.0 
club 0.0 0.25030008 0.079292744 0.0 0.0 0.178794 0.0 0.28119555 0.0 0.0 
incident 0.026423514 0.28332564 0.13779694 0.0 0.0 0.17929798 0.0 0.2967167 0.0 0.0 
knew 0.0 0.19589034 0.028000385 0.0 0.0 0.11639515 0.0 0.28751284 0.0 0.0 
provisional 0.21132743 0.4431973 0.3445647 0.0 0.0 0.32480028 0.0 0.24246445 0.0 0.0 
itself 0.038615465 0.32287875 0.12370989 0.0 0.0 0.20068303 0.0 0.28774405 0.0 0.0 
andy 0.0573211 0.3352922 0.19221926 0.0 0.0 0.24613813 0.0 0.2775329 0.0 0.0 
season 0.05260703 0.342515 0.2146487 0.0 0.0 0.23791108 0.0 0.25106058 0.0 0.0 
spokeswoman 0.03615564 0.29176813 0.12553677 0.0 0.0 0.19362488 0.0 0.2589378 0.0 0.0 
winning 0.0 0.23682526 0.07870877 0.0 0.0 0.1578767 0.0 0.27172133 0.0 0.0 
friedli 0.0 0.20103812 0.0 0.0 0.0 0.09205926 0.0 0.246355 0.0 0.0 
reduce 0.078347206 0.30538875 0.19877398 0.0 0.0 0.19004643 0.0 0.2432798 0.0 0.0 
search 0.0009857714 0.26783437 0.12482497 0.0 0.0 0.1818229 0.0 0.27620736 0.0 0.0 
manslaughter 0.0 0.2796871 0.10179976 0.0 0.0 0.19102219 0.0 0.29444706 0.0 0.0 
ministry 0.0 0.26512763 0.07421857 0.0 0.0 0.15043452 0.0 0.27721652 0.0 0.0 
lung 0.011110634 0.291868 0.10302436 0.0 0.0 0.18491036 0.0 0.2548544 0.0 0.0 
shaun 0.14612997 0.4614751 0.29294285 0.0 0.0 0.32899255 0.0 0.24097243 0.0 0.0 
victims 0.0 0.2585982 0.031547934 0.0 0.0 0.14407888 0.0 0.27172226 0.0 0.0 
individuals 0.0 0.22089183 0.08352414 0.0 0.0 0.12313784 0.0 0.26583597 0.0 0.0 
refugees 0.022855401 0.34252462 0.12155476 0.0 0.0 0.22184965 0.0 0.25843677 0.0 0.0 
apparently 0.034703434 0.30771014 0.15922034 0.0 0.0 0.1980367 0.0 0.22186753 0.0 0.0 
peacekeepers 0.0 0.20227619 0.0057572424 0.0 0.0 0.10035152 0.0 0.26597506 0.0 0.0 
visit 0.0 0.28278348 0.09227139 0.0 0.0 0.18124667 0.0 0.26038885 0.0 0.0 
alongside 0.0 0.26520592 0.023765206 0.0 0.0 0.14352229 0.0 0.2815463 0.0 0.0 
finance 0.021429092 0.27282164 0.110633254 0.0 0.0 0.17348316 0.0 0.2688143 0.0 0.0 
started 0.0 0.275379 0.09251812 0.0 0.0 0.16886178 0.0 0.24755219 0.0 0.0 
wind 0.0030655265 0.2841647 0.13764527 0.0 0.0 0.18632135 0.0 0.28117466 0.0 0.0 
respond 0.0 0.16931495 0.019837797 0.0 0.0 0.08688567 0.0 0.25910607 0.0 0.0 
red 0.03599131 0.33020404 0.20323783 0.0 0.0 0.2224786 0.0 0.2706741 0.0 0.0 
track 0.062488794 0.32410827 0.18157247 0.0 0.0 0.20641589 0.0 0.24055505 0.0 0.0 
mckenzie 0.15978882 0.40040866 0.27119663 0.0 0.0 0.2669738 0.0 0.23625305 0.0 0.0 
saw 0.0 0.15893371 0.0 0.0 0.0 0.06250643 0.0 0.26322234 0.0 0.0 
seeking 0.064778626 0.3149477 0.1722016 0.0 0.0 0.20835617 0.0 0.27240354 0.0 0.0 
yachts 0.043768644 0.28684562 0.1600261 0.0 0.0 0.16924831 0.0 0.2529587 0.0 0.0 
charges 0.0 0.24481672 0.0 0.0 0.0 0.14916548 0.0 0.2716297 0.0 0.0 
january 0.0 0.25351247 0.08179125 0.0 0.0 0.15325195 0.0 0.2780277 0.0 0.0 
lines 0.07195529 0.28876296 0.16440022 0.0 0.0 0.17180565 0.0 0.26217845 0.0 0.0 
wake 0.040290058 0.2921966 0.11127502 0.0 0.0 0.18727618 0.0 0.24247505 0.0 0.0 
remaining 0.02430582 0.26466992 0.09176931 0.0 0.0 0.15864027 0.0 0.28117192 0.0 0.0 
edge 0.0 0.19815208 0.0 0.0 0.0 0.093527995 0.0 0.27065393 0.0 0.0 
property 0.022173941 0.3173524 0.15592 0.0 0.0 0.20519921 0.0 0.23647414 0.0 0.0 
